/******************************************************************************
 * (C) Copyright 2020 AMIQ Consulting
 *
 * Licensed under the Apache License, Version 2.0 (the "License");
 * you may not use this file except in compliance with the License.
 * You may obtain a copy of the License at
 *
 * http://www.apache.org/licenses/LICENSE-2.0
 *
 * Unless required by applicable law or agreed to in writing, software
 * distributed under the License is distributed on an "AS IS" BASIS,
 * WITHOUT WARRANTIES OR CONDITIONS OF ANY KIND, either express or implied.
 * See the License for the specific language governing permissions and
 * limitations under the License.
 *
 * NAME:        weights.h
 * PROJECT:     conv
 * Description: Weights that will be used in the CNN
 *******************************************************************************/

#ifndef EXP_WIDTH

#include "ap_fixed.h"

#define EXP_WIDTH	16
#define INT_WIDTH	4

typedef ap_fixed<EXP_WIDTH, INT_WIDTH> float24_t;

#endif

float24_t conv_layer1_bias[8] = { 0.382973, -0.516139, 0.479715, -0.405078, -0.535074, 0.055494, 0.004570, 0.520299};
float24_t conv_layer1_weights[4][4][1][8] = { 0.127658, -0.172046, 0.159905, -0.135026, -0.178358, 0.018498, 0.001523, 0.173433, 0.069220, 0.174779, -0.154158, 0.144203, 0.165248, 0.085908, -0.038042, 0.030844, 0.144833, 0.039220, 0.112758, 0.193106, -0.178630, -0.067105, -0.113628, -0.073338, -0.188103, -0.176678, -0.070577, -0.003858, -0.157367, -0.063701, 0.009085, -0.079303, 0.155854, 0.123176, 0.203832, 0.065081, -0.152176, -0.126078, 0.065033, 0.106744, 0.103528, -0.034280, 0.183086, 0.159394, 0.170360, -0.095104, -0.132978, -0.185423, 0.199216, -0.188278, -0.110762, -0.202652, 0.041087, -0.101372, -0.017761, -0.118263, -0.149484, 0.044968, 0.082382, 0.028359, -0.098785, -0.165341, 0.189333, -0.117591, 0.181434, -0.184019, 0.158436, -0.108840, -0.022896, -0.150452, 0.173823, -0.063423, 0.199529, 0.141018, 0.109755, -0.087301, -0.012236, 0.138308, 0.113364, -0.058664, 0.102356, -0.045425, -0.057010, -0.202180, -0.132807, 0.201115, -0.100012, -0.069055, 0.072125, -0.174592, -0.180866, 0.188446, -0.013017, 0.059861, 0.187681, 0.145165, -0.141143, -0.016704, 0.105438, -0.099990, 0.130062, -0.089290, 0.166861, 0.073417, 0.034483, 0.130122, 0.119021, -0.019411, -0.139878, -0.096747, 0.084889, -0.092464, -0.087128, 0.133429, 0.065400, -0.111677, -0.015204, 0.103509, -0.031014, -0.099950, 0.181790, -0.102737, 0.063195, 0.091496, 0.123855, 0.070997, -0.008070, 0.151769};
float24_t conv_layer2_bias[16] = { 0.270803, -0.364965, 0.339210, -0.286433, -0.378355, 0.039240, 0.003232, 0.367907, 0.146838, 0.370762, -0.327018, 0.305901, 0.350544, 0.182238, -0.080698, 0.065429};
float24_t conv_layer2_weights[2][2][8][16] = { 0.156348, -0.210713, 0.195843, -0.165372, -0.218443, 0.022655, 0.001866, 0.212411, 0.084777, 0.214060, -0.188804, 0.176612, 0.202387, 0.105215, -0.046591, 0.037776, 0.177384, 0.048035, 0.138100, 0.236505, -0.218776, -0.082187, -0.139166, -0.089821, -0.230378, -0.216385, -0.086439, -0.004726, -0.192734, -0.078017, 0.011127, -0.097126, 0.190881, 0.150860, 0.249643, 0.079707, -0.186377, -0.154414, 0.079649, 0.130734, 0.126795, -0.041984, 0.224234, 0.195217, 0.208648, -0.116479, -0.162864, -0.227096, 0.243989, -0.230592, -0.135655, -0.248197, 0.050321, -0.124155, -0.021753, -0.144842, -0.183080, 0.055075, 0.100896, 0.034732, -0.120986, -0.202500, 0.231885, -0.144019, 0.222210, -0.225376, 0.194044, -0.133302, -0.028042, -0.184266, 0.212889, -0.077677, 0.244372, 0.172712, 0.134421, -0.106922, -0.014986, 0.169392, 0.138842, -0.071849, 0.125360, -0.055634, -0.069823, -0.247619, -0.162655, 0.246315, -0.122489, -0.084575, 0.088335, -0.213830, -0.221515, 0.230799, -0.015942, 0.073314, 0.229861, 0.177790, -0.172864, -0.020459, 0.129135, -0.122462, 0.159293, -0.109358, 0.204362, 0.089917, 0.042233, 0.159366, 0.145770, -0.023774, -0.171315, -0.118490, 0.103967, -0.113245, -0.106709, 0.163417, 0.080098, -0.136776, -0.018621, 0.126772, -0.037984, -0.122413, 0.222647, -0.125826, 0.077398, 0.112059, 0.151691, 0.086953, -0.009884, 0.185878, 0.001784, 0.191946, -0.060050, 0.124532, 0.202885, -0.047585, -0.092715, 0.071020, 0.234357, -0.101059, -0.220309, 0.209343, -0.110746, -0.181142, 0.007640, 0.217488, 0.176830, -0.002602, -0.153107, -0.245527, -0.075192, 0.029020, -0.155127, 0.071552, -0.124408, -0.006121, -0.013994, -0.118362, -0.023502, 0.040315, 0.000717, 0.013319, -0.210447, -0.025309, 0.042555, -0.071935, 0.224236, -0.123181, 0.110113, -0.195627, 0.120904, -0.234256, -0.001989, -0.235763, -0.016736, 0.056538, 0.057334, 0.037743, 0.199205, -0.223861, -0.163598, 0.073369, -0.015933, 0.026625, -0.149972, 0.069143, 0.110878, -0.141322, -0.040794, 0.159997, -0.217376, 0.237619, 0.190513, -0.164144, -0.148747, 0.005850, 0.012139, -0.119300, -0.119806, 0.011693, 0.210361, 0.069793, -0.068206, 0.134468, -0.241412, 0.023933, -0.112936, -0.084802, 0.021830, 0.228512, -0.161768, 0.149675, -0.153436, 0.126060, -0.144404, 0.179487, -0.094057, -0.155994, 0.219269, -0.198859, -0.167272, -0.215066, 0.088439, 0.016066, -0.119561, -0.196789, -0.158188, 0.170406, -0.223296, 0.159503, -0.083396, -0.134112, -0.228179, 0.102358, -0.239749, 0.052007, 0.083871, 0.176718, -0.063131, 0.139786, 0.065890, 0.126298, -0.117497, 0.180704, 0.195131, 0.100232, 0.241740, -0.231785, 0.180075, 0.060719, -0.064718, 0.047815, 0.007297, 0.074802, 0.186743, 0.077242, 0.144410, 0.016498, -0.033115, 0.125877, -0.039808, -0.098611, -0.127708, 0.100009, 0.118210, -0.180095, -0.154515, -0.172947, 0.170202, -0.040129, -0.199058, 0.175174, 0.107416, 0.017701, 0.073836, 0.046940, 0.214334, 0.200480, 0.176731, 0.245091, 0.146616, 0.193074, -0.128418, -0.133588, 0.137729, -0.134230, 0.066460, -0.161645, 0.187564, 0.081423, 0.063955, 0.168269, 0.177968, 0.013775, -0.091455, 0.100172, 0.124410, -0.065248, 0.172354, -0.066318, -0.121430, 0.146123, -0.049205, 0.019050, 0.088491, 0.093124, -0.214302, 0.149696, 0.129955, -0.086040, -0.155943, -0.196975, -0.050984, 0.150765, -0.206236, 0.191029, -0.059487, 0.162209, 0.054960, -0.173248, 0.074033, 0.234764, 0.185351, -0.019743, 0.138897, -0.010117, -0.243643, -0.213876, -0.209231, -0.080700, -0.025371, -0.133606, -0.045947, -0.184478, 0.102114, -0.011572, -0.120492, -0.031629, 0.161276, -0.246917, 0.041383, -0.229778, -0.125695, 0.022601, 0.171283, -0.165172, 0.064858, -0.167047, 0.243558, -0.184852, 0.212005, -0.202080, -0.003828, 0.112118, -0.066552, 0.184193, 0.104239, -0.183080, -0.190802, -0.247328, -0.217273, -0.160363, -0.006775, -0.154929, 0.016018, -0.093915, 0.234988, -0.099838, 0.238094, -0.093674, 0.222789, -0.229964, -0.133836, 0.026679, 0.216197, -0.098440, 0.041173, 0.035219, -0.002953, -0.066876, -0.161159, -0.249704, -0.225842, 0.048218, -0.024605, -0.231403, -0.183840, -0.071314, -0.020038, -0.123457, -0.247728, -0.059168, -0.220999, -0.108672, 0.054966, -0.240000, 0.121301, 0.053484, 0.179162, 0.103609, 0.155085, -0.247355, -0.085664, 0.177509, 0.119742, 0.167737, -0.083094, -0.080580, -0.005770, -0.146438, 0.241621, -0.058574, -0.190550, 0.134523, -0.227796, -0.160182, -0.161175, -0.102865, 0.061336, 0.248218, -0.227947, 0.020497, -0.030348, 0.241229, 0.107116, -0.019924, -0.088004, -0.054433, 0.105728, 0.012073, -0.131055, -0.228615, 0.098598, 0.207487, 0.202508, -0.240683, 0.110859, 0.117519, -0.202098, 0.176107, 0.107977, -0.208367, -0.081024, -0.072910, 0.039674, 0.236082, 0.101151, -0.119079, -0.222854, 0.222690, -0.019337, -0.183801, 0.163164, -0.023707, 0.150150, 0.066766, -0.231346, 0.095397, 0.229721, 0.205953, 0.035988, 0.186204, -0.100077, 0.182035, -0.023447, 0.171512, -0.122700, -0.164793, -0.006982, -0.235692, 0.124613, -0.063605, 0.206084, 0.091404, -0.241785, 0.098024, -0.001907, 0.067515, -0.221676, -0.171891, -0.229047, 0.223770, -0.242042, -0.125997, 0.231776, -0.207269, -0.002051, -0.034348, 0.189352, -0.148281, 0.176154, 0.235374, -0.019745, -0.114592, -0.206451, -0.130678, -0.190927, -0.008098, 0.129882, -0.021458, -0.242881, -0.134817, -0.063996, 0.104776, 0.224729, -0.157124, -0.110473, -0.139708, 0.178654, -0.142001, -0.094024, -0.133097, 0.182965, 0.115099};
float24_t fc_layer1_bias[120] = { 0.000000, 0.000000, 0.000000, 0.000000, 0.000000, 0.000000, 0.000000, 0.000000, 0.000000, 0.000000, 0.000000, 0.000000, 0.000000, 0.000000, 0.000000, 0.000000, 0.000000, 0.000000, 0.000000, 0.000000, 0.000000, 0.000000, 0.000000, 0.000000, 0.000000, 0.000000, 0.000000, 0.000000, 0.000000, 0.000000, 0.000000, 0.000000, 0.000000, 0.000000, 0.000000, 0.000000, 0.000000, 0.000000, 0.000000, 0.000000, 0.000000, 0.000000, 0.000000, 0.000000, 0.000000, 0.000000, 0.000000, 0.000000, 0.000000, 0.000000, 0.000000, 0.000000, 0.000000, 0.000000, 0.000000, 0.000000, 0.000000, 0.000000, 0.000000, 0.000000, 0.000000, 0.000000, 0.000000, 0.000000, 0.000000, 0.000000, 0.000000, 0.000000, 0.000000, 0.000000, 0.000000, 0.000000, 0.000000, 0.000000, 0.000000, 0.000000, 0.000000, 0.000000, 0.000000, 0.000000, 0.000000, 0.000000, 0.000000, 0.000000, 0.000000, 0.000000, 0.000000, 0.000000, 0.000000, 0.000000, 0.000000, 0.000000, 0.000000, 0.000000, 0.000000, 0.000000, 0.000000, 0.000000, 0.000000, 0.000000, 0.000000, 0.000000, 0.000000, 0.000000, 0.000000, 0.000000, 0.000000, 0.000000, 0.000000, 0.000000, 0.000000, 0.000000, 0.000000, 0.000000, 0.000000, 0.000000, 0.000000, 0.000000, 0.000000, 0.000000};
float24_t fc_layer1_weights[576][120] = { -0.017675, 0.039321, 0.040308, -0.063591, 0.054514, 0.061156, -0.051978, -0.065413, 0.042725, -0.023248, -0.012735, -0.003437, -0.047638, -0.073277, 0.030380, 0.063276, 0.031927, -0.047261, -0.032401, 0.039124, -0.022234, 0.070632, -0.068278, -0.036977, 0.006754, 0.030484, 0.020317, 0.076897, 0.000955, -0.024849, 0.021473, -0.077472, 0.039932, 0.012478, 0.022340, 0.006057, 0.073042, 0.005984, -0.030732, 0.010477, 0.036001, -0.056420, 0.043791, 0.031041, 0.043087, -0.046690, 0.022832, 0.086202, -0.027724, 0.016895, -0.068276, 0.009173, 0.056869, 0.089084, 0.061034, -0.025851, 0.091001, 0.058272, 0.046157, 0.064643, -0.086370, -0.070527, -0.077540, -0.011074, -0.005986, 0.057436, -0.020476, 0.081208, -0.090695, -0.020029, 0.040516, 0.042255, 0.002310, -0.022418, 0.025628, -0.031426, -0.066107, -0.003875, -0.005019, 0.076059, 0.035544, 0.083638, -0.042902, 0.011993, 0.073303, 0.007964, -0.019117, -0.080649, -0.007442, 0.043106, -0.040934, 0.029948, 0.078733, -0.085648, 0.056200, -0.050866, -0.023853, 0.086352, 0.005988, 0.015574, 0.043960, 0.069020, -0.019235, 0.021766, -0.091395, -0.016010, -0.007983, 0.049968, -0.087156, 0.091504, 0.031371, 0.019665, 0.021492, -0.082335, -0.035029, -0.009853, -0.059504, -0.019198, 0.068323, -0.060285, -0.047012, -0.002110, 0.084063, 0.018842, -0.080720, -0.040245, 0.026226, -0.038521, 0.048543, 0.041064, -0.000101, -0.009300, -0.000955, -0.011519, -0.003556, -0.028728, -0.056345, 0.007819, -0.060657, -0.006246, 0.076058, 0.018068, 0.010931, -0.017021, -0.030506, -0.010203, 0.044094, 0.048523, -0.050231, 0.022120, 0.055134, -0.007484, -0.086984, 0.067297, 0.042431, 0.079178, -0.019794, -0.022827, 0.066825, -0.021131, 0.000625, -0.068987, 0.009415, 0.011127, 0.017182, 0.010423, 0.067760, -0.032507, -0.048399, -0.072705, -0.021946, 0.066857, 0.002670, -0.039781, 0.067822, 0.044152, -0.051079, 0.003969, 0.080763, -0.025893, -0.054203, 0.000601, 0.068745, 0.083252, -0.013408, -0.004238, 0.005819, -0.074830, -0.013220, -0.082337, -0.080754, -0.090671, -0.065974, 0.089733, 0.011488, -0.001739, -0.066359, -0.054476, -0.042184, -0.022569, 0.012285, -0.052027, -0.023510, 0.006499, 0.020783, -0.001449, 0.035234, -0.010540, -0.055179, -0.006809, 0.081850, 0.085556, -0.008992, -0.075722, 0.029273, -0.048852, -0.054433, 0.055387, -0.052758, 0.064092, -0.049751, -0.077624, 0.047932, 0.087726, 0.053365, -0.047942, 0.028673, 0.044540, -0.071241, -0.060803, -0.059604, -0.065350, 0.083761, -0.071983, 0.052327, 0.057832, 0.062271, -0.075783, 0.066765, -0.055164, 0.072442, -0.091123, -0.003720, -0.034399, 0.024790, -0.056585, -0.057080, -0.058243, 0.036689, 0.066633, 0.078927, 0.027621, 0.066282, -0.068946, 0.083683, -0.044983, -0.020140, 0.019047, -0.065375, -0.087500, -0.087573, -0.002239, 0.064170, 0.023452, 0.027600, -0.064234, 0.077251, 0.069125, -0.084916, -0.057383, -0.045820, -0.024536, 0.069530, -0.009768, 0.000640, 0.025549, 0.009496, -0.059796, -0.014470, -0.059658, -0.066851, 0.026775, -0.003460, -0.053850, -0.018968, 0.004812, -0.059747, -0.090684, 0.061095, 0.044133, -0.038120, 0.091130, -0.069369, -0.023868, -0.060805, -0.048417, 0.054409, 0.049172, -0.031229, 0.013195, -0.056556, -0.048636, 0.008061, -0.078719, 0.057262, 0.023604, -0.009705, -0.079896, 0.077673, -0.046230, -0.077782, -0.028244, 0.038249, -0.065206, 0.085265, -0.072526, 0.004297, 0.038648, -0.062610, -0.085624, -0.061258, 0.079424, -0.000933, -0.000836, 0.049723, 0.079876, 0.071152, -0.072911, 0.038011, 0.000125, 0.064054, 0.082416, 0.051946, 0.033038, 0.047852, 0.040581, -0.087229, -0.012034, 0.042177, 0.092746, 0.022625, 0.029335, -0.047098, -0.015485, -0.077970, -0.071945, 0.034010, 0.038119, -0.090966, 0.026245, 0.061524, -0.025689, 0.012939, -0.051789, -0.023797, 0.051401, 0.073002, -0.017872, 0.069268, -0.011531, -0.021519, 0.012339, -0.087328, 0.083748, 0.063524, -0.024891, 0.088333, -0.032354, 0.088859, 0.081382, -0.006720, -0.052736, -0.017261, 0.056503, -0.079513, 0.031583, -0.020262, -0.028497, -0.053181, -0.029936, -0.005086, 0.091960, 0.067515, 0.008517, -0.043940, 0.024798, 0.046395, -0.063336, 0.065376, -0.012984, 0.055320, 0.068021, 0.022844, -0.031889, 0.037622, 0.083386, -0.054728, 0.067140, 0.031150, 0.075443, 0.005153, 0.075926, 0.061612, -0.070972, 0.069934, -0.033136, 0.074915, -0.022350, 0.011936, 0.011550, 0.084334, 0.025519, 0.085715, 0.016914, -0.048467, -0.012459, -0.073944, 0.063878, 0.033949, -0.037061, 0.050985, 0.063847, -0.087255, 0.074580, 0.006467, -0.005195, -0.007758, 0.022953, -0.072638, -0.038534, 0.074034, 0.081863, 0.089380, -0.027296, -0.064206, -0.042630, 0.018551, 0.014313, -0.039230, 0.087340, 0.063522, -0.038071, -0.031426, 0.073090, 0.010401, 0.024429, -0.025274, 0.092631, 0.067551, -0.043193, 0.085113, 0.018707, 0.001814, 0.051187, 0.083065, -0.063883, -0.017993, -0.044022, -0.016339, -0.002264, 0.013200, -0.092614, -0.066754, 0.073100, -0.029800, -0.061764, 0.031109, -0.018381, -0.065158, 0.068655, -0.059379, 0.027606, 0.092100, 0.028089, 0.026790, -0.074723, 0.083771, -0.058844, -0.012371, -0.047570, 0.052917, -0.016037, -0.051968, -0.024416, -0.053365, -0.039204, 0.078218, 0.026453, 0.000536, 0.047333, 0.060896, -0.033986, -0.000823, 0.090911, -0.071450, 0.035723, -0.073034, 0.092648, -0.068895, 0.008908, -0.021517, -0.085808, -0.032699, 0.005414, -0.024508, 0.061838, -0.002769, -0.028234, 0.032484, -0.007468, 0.085382, -0.044937, 0.028187, -0.085527, 0.023455, 0.010377, 0.067747, -0.041030, 0.040888, 0.043058, 0.036880, -0.028016, 0.033013, -0.047427, -0.027700, 0.017155, -0.071476, -0.020997, 0.068351, -0.081787, 0.067169, -0.006394, -0.039203, 0.063821, -0.061189, -0.043736, 0.050817, 0.002587, 0.041590, 0.001017, -0.062017, 0.047856, 0.025670, 0.009784, 0.008144, -0.065227, 0.002627, -0.089941, -0.007803, 0.086586, 0.047805, -0.015931, -0.011166, 0.036574, 0.023768, -0.036612, 0.092717, -0.064628, 0.037983, -0.050686, 0.021422, -0.060173, 0.059235, 0.044965, -0.087027, 0.056320, 0.077436, -0.048164, -0.042683, -0.081810, 0.046422, 0.083798, 0.037049, -0.023187, -0.068414, 0.074981, -0.016961, 0.021490, 0.011809, -0.026774, -0.026536, -0.021930, 0.017327, 0.046197, -0.019781, -0.024880, 0.029176, 0.006971, -0.016712, -0.085284, -0.000152, -0.037351, 0.087359, -0.003223, -0.078538, 0.084120, -0.015940, -0.092347, 0.053837, 0.014376, 0.017877, -0.075569, 0.021995, -0.045206, 0.024219, -0.059248, -0.066084, 0.070490, 0.008253, 0.000131, 0.036351, 0.071251, -0.020967, -0.010233, 0.011985, 0.081720, 0.088441, 0.017224, -0.054295, -0.074483, 0.006493, 0.045850, 0.072701, -0.042125, 0.053267, 0.087948, -0.088290, 0.044987, -0.020478, -0.039557, 0.053159, -0.077440, 0.056510, 0.002726, 0.051480, -0.045679, 0.054573, 0.063178, 0.059729, 0.036741, -0.042912, -0.066898, -0.060222, -0.014428, 0.084449, 0.044296, -0.025202, -0.086560, 0.045751, 0.085944, -0.092101, 0.034184, 0.064192, -0.080445, -0.014910, -0.000590, 0.072532, -0.025992, 0.069749, -0.064070, -0.013379, 0.086883, 0.052143, 0.057521, -0.014712, 0.058380, -0.073011, 0.009988, -0.043450, -0.053946, -0.034821, -0.013154, 0.056059, -0.058478, -0.091070, 0.052562, 0.092022, 0.071837, -0.087597, 0.071525, -0.029398, -0.074586, 0.062612, 0.068345, -0.025218, -0.001483, -0.051428, -0.069989, 0.030998, -0.050792, 0.029737, -0.033090, -0.086517, 0.069037, 0.071715, 0.038390, 0.010245, -0.044365, 0.075365, -0.012120, -0.010704, 0.069798, 0.077015, 0.066150, 0.037249, -0.017624, 0.003275, 0.016352, -0.028456, 0.006190, -0.023076, -0.075694, 0.060077, -0.006879, -0.016769, -0.047382, 0.070176, 0.009797, -0.085268, -0.046326, 0.010440, 0.000823, 0.066456, 0.063795, -0.030919, 0.036212, 0.075112, 0.003124, -0.048729, -0.089424, 0.037324, 0.004074, 0.072724, -0.005299, 0.089036, 0.079756, -0.073218, 0.043311, 0.035442, -0.048536, -0.062260, 0.046314, -0.037984, -0.052366, 0.031718, -0.015207, -0.048206, -0.062171, 0.016588, 0.089162, -0.076555, -0.015453, -0.036659, 0.074800, 0.006713, 0.031713, -0.021240, 0.046332, -0.062450, 0.073625, -0.050328, 0.014693, -0.021152, 0.011530, -0.034128, -0.072043, -0.014022, -0.008645, 0.086780, 0.072866, -0.088555, -0.081338, 0.029061, 0.091234, 0.050106, -0.056643, 0.082138, -0.001829, -0.018870, 0.086818, -0.023787, 0.049073, -0.011151, -0.066514, 0.009094, 0.021129, 0.029921, 0.054508, 0.021101, 0.076199, 0.018759, -0.065274, 0.045246, -0.069579, -0.035910, 0.070362, 0.007324, -0.053934, 0.092077, 0.053264, 0.058336, -0.031448, -0.065212, -0.085981, -0.034385, 0.071294, 0.059709, -0.021523, -0.068830, 0.047283, 0.056233, -0.035279, 0.046851, -0.038176, -0.018157, 0.039338, 0.021267, -0.049989, 0.076334, 0.016941, 0.042424, -0.087758, 0.026987, -0.056920, 0.011951, -0.053513, -0.031277, -0.075786, 0.091584, -0.082608, -0.047099, 0.091105, -0.002013, 0.026610, -0.063284, 0.078435, 0.070642, 0.056622, -0.027309, -0.090996, -0.063641, 0.029215, -0.083027, 0.067074, -0.065395, 0.028357, -0.004344, 0.012039, -0.078073, -0.058439, -0.073473, 0.041803, -0.079738, 0.088163, 0.054823, 0.082059, 0.011868, -0.016498, 0.043343, -0.082748, 0.041464, 0.013944, 0.030486, 0.054851, 0.037071, -0.085604, 0.047777, -0.066342, -0.065522, 0.013136, -0.019371, 0.041931, -0.091028, 0.030848, 0.054803, -0.047518, -0.084843, -0.024077, -0.000856, 0.024728, 0.029232, 0.007089, 0.003885, -0.063777, 0.083259, -0.013745, 0.045897, 0.006883, 0.082630, -0.035429, 0.089216, -0.001557, -0.012331, 0.045997, -0.007448, -0.053729, 0.013736, 0.033839, -0.091827, -0.003277, 0.090725, -0.060089, 0.085213, -0.013822, -0.031352, -0.042627, -0.010439, 0.042014, 0.051607, 0.022736, -0.040285, -0.057959, 0.020107, -0.086141, 0.047307, 0.077687, 0.002909, -0.078795, -0.063167, -0.010542, -0.052121, -0.051951, -0.028190, 0.013556, 0.002925, -0.061784, 0.048428, 0.087627, 0.043737, -0.041533, 0.064923, -0.047192, -0.068046, -0.005847, 0.007619, -0.091432, 0.060684, -0.061542, 0.059427, -0.079071, -0.005179, 0.040678, 0.076520, 0.084754, 0.088371, 0.035764, 0.007545, 0.003464, 0.065954, -0.047022, -0.052852, -0.057152, 0.047345, 0.065117, 0.046483, -0.045489, -0.092312, -0.030496, -0.046302, 0.031759, -0.022825, -0.037969, -0.039335, 0.052435, -0.024892, -0.057833, -0.027654, 0.079042, 0.020623, 0.012551, 0.010963, -0.031539, 0.084913, -0.023677, -0.038134, 0.046946, 0.008992, 0.068170, 0.064869, -0.082873, -0.021350, 0.049696, -0.092245, -0.059798, -0.057216, 0.035318, -0.044901, 0.089508, 0.062935, 0.044211, 0.074563, -0.055623, -0.029538, 0.012007, -0.022556, 0.020867, -0.050385, 0.054668, -0.075514, 0.030891, -0.005609, -0.048724, 0.031838, 0.002349, 0.055562, 0.029437, -0.000310, 0.023699, -0.083448, 0.089056, 0.019034, -0.040178, -0.028238, 0.050017, -0.024275, 0.079568, -0.070788, -0.057966, 0.037787, -0.081056, 0.066932, -0.065141, 0.079990, 0.001217, 0.043420, -0.085875, 0.012644, -0.025216, -0.048334, -0.071729, -0.072497, -0.065182, 0.042798, 0.005301, 0.021784, 0.037075, -0.071544, 0.012722, 0.036002, 0.008618, -0.020663, -0.037459, -0.007768, -0.010791, -0.008759, 0.082091, -0.065447, 0.016437, 0.036925, 0.067545, -0.000133, -0.044628, -0.048879, -0.055038, 0.006928, 0.086092, 0.066874, -0.050559, -0.039853, -0.031849, 0.018138, 0.017843, -0.008165, -0.076022, 0.040448, -0.066090, -0.083637, 0.038543, -0.077105, 0.068434, 0.019823, -0.077846, -0.038964, -0.027251, 0.024694, -0.000798, 0.017279, 0.036150, -0.032284, 0.039148, 0.036216, -0.024781, 0.010167, 0.013379, 0.042360, -0.006027, 0.058961, 0.002358, 0.089482, -0.001825, 0.036492, 0.015980, 0.027185, 0.056736, 0.092812, 0.017048, 0.070538, -0.019733, 0.008806, 0.033330, 0.089241, 0.074647, 0.048331, 0.088847, 0.090900, -0.045903, -0.050168, 0.055720, 0.039181, 0.048264, 0.045701, -0.022821, -0.032022, -0.062494, 0.010195, 0.087733, 0.087991, 0.088424, 0.086042, 0.021099, 0.015540, 0.069223, 0.047577, 0.064211, 0.068694, -0.068038, 0.065155, -0.009148, -0.033825, 0.062197, 0.022372, 0.042225, -0.084924, 0.061548, -0.041512, -0.060286, 0.057870, 0.070830, 0.000329, -0.000338, -0.047806, -0.076021, -0.049405, 0.044027, 0.055825, -0.015381, -0.082328, 0.005690, -0.029216, -0.067371, -0.092159, -0.044834, 0.003902, -0.065159, 0.042446, -0.036600, 0.061389, 0.056741, -0.071566, -0.017155, -0.058565, -0.068504, 0.080388, -0.080603, 0.087117, -0.031143, -0.065014, 0.084366, 0.058582, -0.058947, -0.038007, 0.032157, 0.079283, -0.036919, 0.038854, 0.075076, -0.075443, 0.060981, -0.011519, -0.045355, 0.021668, -0.030450, 0.030016, -0.089504, -0.001048, 0.051598, 0.043313, 0.062091, -0.006972, -0.005272, -0.057824, -0.031439, 0.091660, -0.024780, 0.020330, -0.011836, 0.056763, 0.003031, 0.063141, 0.012936, -0.060919, 0.025285, -0.080994, 0.010773, -0.078371, 0.086156, -0.070243, -0.086584, -0.033701, 0.026629, 0.023860, -0.028108, -0.054629, -0.073801, 0.071883, 0.051325, 0.077562, 0.042894, -0.071656, -0.069704, -0.088025, 0.058873, 0.070266, -0.008801, 0.086352, -0.000436, 0.019855, 0.048645, -0.004089, -0.006268, -0.046856, -0.087803, 0.074558, -0.074127, 0.036476, 0.029964, -0.065403, 0.035348, 0.056412, 0.075085, -0.084079, -0.074837, -0.008812, 0.014691, 0.068823, 0.031943, 0.001643, 0.054878, 0.092171, 0.088936, -0.049181, 0.045445, -0.077168, -0.018126, 0.003443, 0.000815, -0.002329, -0.011984, 0.075045, -0.020497, -0.008846, 0.008508, -0.086634, 0.074315, 0.085668, 0.082339, -0.055775, 0.063977, 0.058511, -0.011317, 0.020089, -0.044967, 0.025617, 0.065093, -0.084774, -0.082456, -0.014528, 0.062718, 0.049818, 0.083578, 0.027380, -0.046171, -0.064086, 0.040707, -0.072510, 0.000258, 0.006937, 0.014525, -0.081301, -0.061855, -0.068700, -0.083261, 0.087473, -0.006980, 0.069041, 0.055081, 0.008365, 0.021631, 0.012504, -0.028719, -0.012762, 0.074571, -0.083123, -0.045851, -0.006777, 0.055025, 0.042013, -0.078214, -0.048690, 0.003358, 0.006732, -0.006044, -0.025456, -0.062655, 0.042334, 0.084560, 0.017140, 0.056575, -0.010578, 0.079417, -0.080784, -0.059113, 0.049773, -0.062282, -0.082407, -0.027894, 0.048371, -0.025984, -0.069340, 0.032380, 0.034302, -0.034995, 0.026273, 0.016782, 0.053045, -0.005134, -0.080509, 0.059914, 0.042449, 0.089330, -0.022971, 0.085161, 0.060066, -0.056654, -0.039620, -0.067293, 0.022789, 0.030523, 0.025489, 0.060945, -0.069004, -0.055661, 0.013791, -0.032256, -0.034786, 0.089557, 0.037329, 0.053902, 0.007958, 0.075635, -0.085811, 0.025975, 0.091747, 0.039012, 0.079314, -0.062124, -0.088089, -0.043301, 0.045179, -0.018020, 0.079705, 0.070506, 0.072414, 0.027009, 0.002013, -0.039449, 0.074412, 0.053823, -0.056513, 0.009100, 0.012288, -0.058675, 0.062694, -0.091838, 0.073816, -0.079956, -0.050580, -0.034166, 0.009579, -0.050296, -0.064866, -0.076754, -0.019111, -0.030078, -0.048937, -0.033520, 0.060529, 0.060817, -0.007295, -0.032253, -0.070274, -0.084166, -0.068092, 0.026715, 0.031007, -0.007911, -0.048510, 0.007124, 0.091487, 0.077416, 0.008929, 0.054120, -0.049976, -0.071139, -0.006782, 0.045129, -0.028089, 0.030595, -0.026403, 0.040540, 0.074653, -0.024699, 0.073718, -0.049318, 0.076397, 0.004999, 0.062077, 0.075721, -0.055095, 0.024340, 0.016509, -0.008271, 0.085964, -0.024086, -0.077068, 0.049013, 0.051061, -0.083948, 0.070398, 0.035390, -0.039301, -0.081380, -0.018547, 0.046600, 0.006478, -0.012143, -0.063780, -0.004221, -0.015579, -0.044947, 0.056227, -0.090967, -0.082393, -0.062014, -0.079420, -0.036933, -0.060260, 0.050818, -0.025358, 0.082352, 0.002277, -0.082706, -0.042709, 0.001808, 0.038476, -0.073035, -0.049582, 0.027933, 0.078132, 0.010148, 0.058453, -0.056674, 0.043064, 0.028133, -0.076121, 0.046001, 0.055830, 0.069647, 0.066468, 0.038442, -0.085827, -0.014811, 0.037646, -0.053785, 0.005210, -0.058268, 0.021988, 0.080676, -0.080698, 0.061265, -0.069892, -0.054245, -0.085099, 0.023019, 0.056959, -0.013897, 0.016077, -0.027440, -0.057357, 0.020830, -0.023838, -0.068609, -0.069177, 0.036686, -0.053362, 0.080775, -0.033753, -0.043370, -0.036854, -0.069911, -0.027921, -0.084111, -0.052573, 0.054393, 0.008717, -0.039818, -0.066302, -0.054343, -0.062084, 0.062672, -0.058594, -0.059415, -0.058707, 0.076368, -0.025241, -0.062356, -0.091658, -0.067034, -0.082857, -0.048797, -0.010608, 0.066613, -0.074595, -0.032281, 0.085187, 0.003071, 0.015481, -0.079865, 0.040836, -0.034852, 0.026443, 0.055776, 0.058303, 0.001652, -0.027271, -0.018728, -0.089648, 0.031186, 0.058201, 0.010225, -0.001327, -0.069065, 0.014662, -0.033814, 0.070375, 0.042966, -0.048978, -0.037159, 0.027505, -0.037304, -0.086087, -0.090584, 0.028642, -0.029181, 0.040945, 0.017853, -0.049000, 0.032411, -0.037602, 0.050959, 0.031058, -0.005872, 0.043873, 0.063744, 0.054710, -0.009635, -0.084463, -0.083166, 0.066000, -0.081838, 0.027573, 0.075729, -0.026683, 0.006877, -0.014206, 0.092188, 0.022953, -0.079573, 0.061013, 0.091234, 0.068816, 0.059758, 0.032553, -0.003272, 0.084163, 0.003437, -0.041081, -0.035369, -0.062238, 0.029956, -0.008140, -0.046146, -0.085764, -0.000610, 0.012278, -0.091553, -0.061296, -0.026477, 0.058260, 0.017837, 0.033613, -0.013425, 0.091096, 0.052175, -0.024700, 0.074082, -0.078693, 0.081739, -0.062134, 0.087490, -0.039868, 0.025504, -0.088693, -0.038721, 0.051685, -0.014115, 0.013425, -0.044766, 0.001888, -0.004428, 0.043467, -0.012711, -0.021640, 0.050673, 0.012976, 0.019141, -0.043674, 0.058567, 0.046584, 0.028969, -0.029931, -0.045462, -0.050937, 0.018410, 0.057408, -0.034220, -0.025254, -0.069015, 0.073754, -0.011388, -0.055507, 0.007332, -0.044751, 0.083801, -0.022392, 0.064054, -0.031858, -0.019471, 0.066790, 0.059312, -0.000366, 0.009251, 0.017902, -0.006571, -0.054958, -0.000307, -0.081757, 0.070151, -0.028248, 0.039700, 0.016736, 0.054355, 0.045318, 0.008429, 0.086299, -0.067570, -0.071018, -0.071192, 0.092369, 0.067498, 0.057387, -0.006274, 0.031982, 0.069067, 0.004663, 0.064240, -0.039749, 0.068901, -0.045961, -0.011513, 0.008629, -0.047190, 0.046683, -0.071353, 0.075633, 0.059525, 0.034684, -0.050677, -0.016671, -0.001458, 0.004618, 0.013152, -0.051637, -0.068941, -0.061665, -0.054404, 0.080245, 0.044301, 0.089018, 0.076977, -0.080564, 0.024016, 0.051950, 0.011058, -0.045130, -0.090358, 0.076311, 0.053660, -0.084680, -0.034319, 0.082124, 0.080129, -0.025009, -0.050067, -0.047693, -0.004063, 0.034492, -0.062103, 0.054186, 0.039873, -0.059091, -0.091845, 0.052014, 0.030111, 0.062406, -0.018582, -0.022996, -0.063195, 0.013816, -0.041512, -0.067359, 0.071697, -0.001464, -0.061488, 0.065263, -0.002074, -0.062460, 0.075917, -0.084622, -0.047899, -0.017279, 0.080956, -0.077909, -0.057918, -0.038610, 0.005288, -0.003855, -0.005144, 0.080982, -0.048842, 0.085692, -0.033106, 0.027826, -0.066498, -0.031060, -0.069301, -0.018103, 0.064743, 0.066814, -0.062981, 0.025543, -0.091407, 0.045615, 0.071556, 0.020774, 0.070019, 0.008980, 0.021308, -0.088661, -0.054288, -0.000711, -0.019719, -0.034923, -0.045718, 0.006426, -0.047866, -0.085470, -0.092239, 0.071801, 0.035964, 0.036203, 0.045644, -0.091818, 0.070755, 0.036507, 0.023798, 0.073986, -0.024959, 0.024759, -0.054560, 0.033643, 0.040282, 0.026070, 0.035830, 0.033951, 0.038433, -0.005604, -0.073013, -0.062306, -0.069394, -0.063436, 0.052878, 0.045141, -0.071545, -0.051357, -0.065183, 0.073425, -0.033068, -0.035669, -0.013518, -0.025337, 0.050188, 0.015292, 0.034319, 0.024981, -0.083887, -0.039884, -0.064520, 0.020610, 0.024733, -0.046474, -0.065312, -0.090394, -0.076351, -0.014477, -0.054441, -0.036785, 0.028406, -0.052196, -0.074735, -0.063988, -0.014887, 0.002299, -0.022644, -0.060671, -0.013235, 0.070692, 0.046387, 0.041916, -0.053964, -0.047773, 0.037576, -0.003007, 0.010478, 0.025826, -0.083309, -0.059847, -0.035299, -0.081812, 0.043481, 0.057984, -0.085503, 0.025157, 0.049775, -0.077567, 0.089526, -0.004837, -0.068335, -0.083931, 0.056769, -0.014688, -0.017180, -0.000912, -0.055677, 0.034556, 0.080904, 0.077947, 0.007468, -0.021563, -0.088470, 0.063441, 0.040798, -0.063926, 0.000553, 0.019787, 0.007589, 0.019928, 0.054420, 0.049166, 0.079047, -0.002227, 0.080316, -0.020297, -0.058655, 0.059179, -0.086198, -0.022693, -0.081860, 0.026989, -0.034132, -0.062944, -0.030402, -0.079508, 0.012535, -0.071131, -0.089734, -0.053098, 0.084093, 0.062699, 0.001809, 0.040062, -0.007323, 0.092652, -0.034871, 0.027473, -0.068024, -0.014008, -0.004752, 0.017518, 0.039220, 0.013585, 0.008287, -0.091378, 0.065533, -0.037180, -0.087414, 0.083964, -0.071161, -0.020710, 0.045803, 0.070805, 0.037112, -0.040916, -0.084309, -0.013335, -0.077840, -0.026521, 0.035959, -0.091817, 0.017159, 0.057502, -0.060222, -0.079445, 0.086838, -0.084620, 0.047816, 0.015637, 0.090005, -0.063559, 0.073003, -0.038989, 0.061071, -0.008941, -0.043322, -0.039030, 0.054676, 0.076292, 0.092438, -0.024646, -0.066674, 0.062056, -0.045683, -0.035066, 0.005850, -0.088803, 0.023285, 0.059610, 0.041125, -0.068747, -0.082020, 0.029965, 0.023053, 0.068693, -0.045555, -0.041962, 0.008581, -0.055965, 0.061098, -0.048179, 0.062770, -0.007573, 0.073305, -0.045154, 0.052079, -0.071764, 0.029972, 0.076380, 0.014866, -0.028015, -0.078550, 0.026142, -0.004769, -0.019347, 0.059486, -0.013725, 0.046717, -0.013961, -0.024795, -0.060086, -0.024913, -0.015660, 0.080876, 0.068833, 0.015899, 0.052148, 0.090333, -0.090513, -0.085583, -0.087326, -0.013429, 0.054026, 0.043706, 0.036541, 0.016551, 0.092504, -0.023631, -0.073219, -0.010514, 0.042878, -0.022863, -0.085787, -0.022980, 0.035733, 0.032679, 0.009755, -0.064608, -0.082631, 0.024688, 0.074844, 0.054710, -0.056265, 0.088855, 0.024863, -0.084071, -0.009247, 0.088180, 0.074856, -0.061509, 0.003639, -0.092843, 0.047971, -0.050148, 0.085293, 0.053628, 0.071234, -0.020840, -0.088793, -0.011228, -0.041881, -0.058372, -0.066919, -0.008656, -0.079904, 0.056525, -0.027726, -0.035811, 0.085772, 0.026141, 0.086466, 0.039721, -0.022750, 0.073404, -0.060381, 0.090545, 0.070306, 0.030735, 0.052264, -0.005341, -0.058007, -0.090629, -0.085342, 0.064919, 0.012147, -0.048504, -0.078402, 0.018943, -0.073261, 0.030076, 0.054318, -0.069516, 0.076181, -0.033951, 0.048691, 0.028514, -0.080587, 0.070157, -0.034976, -0.073606, -0.057026, 0.045436, -0.032558, -0.047298, -0.026807, 0.035176, -0.016248, 0.069194, -0.001158, -0.031913, 0.034799, -0.053590, -0.042672, -0.077709, -0.073148, -0.037513, 0.033208, -0.037629, -0.020706, -0.055996, -0.003253, -0.069617, -0.072993, 0.034578, -0.033708, 0.083526, -0.081402, 0.011744, -0.041285, 0.026390, 0.070257, -0.070500, -0.054511, 0.091852, 0.040264, -0.032764, 0.068620, 0.054241, 0.010479, -0.078071, -0.088801, -0.007680, 0.075843, -0.050456, -0.090360, 0.027778, 0.051431, 0.047077, 0.021108, -0.083447, -0.012087, 0.091137, 0.037745, 0.035717, 0.013065, -0.061861, 0.044009, -0.015915, 0.084377, -0.056515, -0.028644, -0.088883, -0.007404, 0.022757, 0.054006, -0.015525, -0.010106, -0.069052, -0.065403, -0.067297, 0.012371, 0.038667, 0.002590, 0.082089, 0.008076, -0.062856, 0.072948, -0.026462, 0.068709, 0.012017, -0.040312, -0.087984, 0.047675, -0.062155, -0.073433, -0.092635, -0.083318, -0.061845, -0.059283, 0.035351, 0.000365, -0.025324, 0.048116, 0.015472, 0.090369, 0.030064, -0.089664, -0.090953, -0.075817, -0.017342, 0.044563, 0.009839, 0.033044, -0.048621, -0.012844, -0.044971, -0.060670, 0.059734, -0.080761, -0.023423, 0.071278, 0.084561, 0.082064, -0.053433, 0.029362, 0.083919, -0.010835, 0.092619, -0.090368, 0.011317, 0.076151, -0.028086, 0.015913, -0.080734, -0.002445, -0.067757, 0.016711, 0.060289, -0.083522, 0.088998, 0.039624, 0.077430, 0.014524, 0.016599, 0.066846, -0.037988, -0.087133, -0.089486, 0.032204, 0.041208, 0.080262, 0.017136, 0.013325, 0.027524, 0.065973, -0.091507, -0.060804, 0.002367, -0.053797, -0.030188, -0.028648, 0.039275, -0.008219, 0.018123, -0.088463, 0.021103, 0.086220, -0.068471, 0.074719, 0.072693, 0.051158, -0.069144, -0.088670, 0.050595, 0.060873, 0.048058, 0.023159, -0.019208, -0.019138, -0.082363, 0.086375, -0.046443, 0.032846, -0.066239, 0.018213, 0.016556, -0.039633, 0.046071, 0.078422, 0.076859, -0.055350, -0.074606, 0.075945, 0.073055, 0.037651, -0.011460, -0.027820, -0.019599, 0.063806, -0.064760, -0.064093, -0.014335, 0.032186, 0.067098, -0.078489, -0.060047, -0.038331, -0.016317, 0.053715, -0.036483, 0.005457, -0.018263, -0.058521, 0.022495, -0.028476, 0.017186, -0.039573, -0.013237, -0.036211, -0.016585, -0.049033, 0.016858, 0.088623, -0.053513, 0.051937, 0.039134, -0.002470, 0.014227, -0.072061, -0.034925, 0.052163, -0.040778, 0.000143, -0.026404, 0.016005, -0.017177, 0.040253, -0.037841, 0.016053, 0.040026, -0.035380, -0.043177, 0.013327, -0.082682, -0.044722, 0.029724, 0.036487, 0.082766, -0.077458, 0.011481, -0.076148, 0.087739, -0.041896, 0.076442, 0.026537, -0.028046, 0.075399, 0.051718, 0.088612, 0.009740, -0.067827, -0.072727, 0.038355, 0.083927, 0.027892, -0.038188, 0.013180, -0.024024, 0.016293, -0.071791, -0.060510, 0.057850, -0.075444, 0.033147, 0.083663, 0.055095, 0.000216, 0.059793, -0.016545, 0.011297, -0.004016, -0.036121, 0.044257, -0.041117, 0.006789, 0.019624, -0.058867, -0.041934, -0.057462, 0.034093, -0.062854, 0.079734, 0.091165, -0.045004, 0.052702, -0.031233, 0.026024, 0.056552, -0.063566, -0.049963, 0.085481, 0.070049, 0.048374, -0.085088, -0.011031, 0.045999, -0.032105, 0.090924, 0.065090, 0.042644, 0.052284, 0.022357, -0.056170, 0.052661, -0.071090, -0.003969, -0.061704, -0.013349, 0.010980, -0.027785, -0.014497, 0.078639, -0.000859, -0.041430, 0.012150, 0.011371, 0.016065, 0.052075, -0.034768, 0.055047, 0.004678, 0.091237, 0.054391, -0.049471, -0.014127, 0.057277, -0.050536, -0.052980, -0.066570, 0.080628, -0.076382, -0.035199, 0.088273, -0.005843, 0.064470, 0.089113, -0.057026, 0.078006, 0.022002, -0.008198, -0.040603, 0.029067, -0.079860, -0.075254, -0.055326, 0.070393, 0.009688, -0.002968, -0.009116, 0.008821, 0.006403, 0.003344, 0.059595, -0.083140, -0.036358, -0.042356, 0.039717, 0.082546, -0.030218, -0.053831, -0.090959, 0.003506, 0.064490, 0.042995, -0.017640, -0.070679, -0.029212, 0.073819, -0.058704, 0.065270, 0.052152, 0.091254, -0.068983, 0.044030, -0.084099, 0.081403, -0.010014, -0.074316, -0.021020, 0.038757, -0.022654, -0.060772, 0.045781, 0.027830, 0.062533, -0.003495, 0.004961, -0.079649, 0.026371, -0.014899, 0.028363, -0.055985, 0.089691, -0.091386, 0.058183, 0.074508, 0.044806, 0.056655, 0.073104, -0.076248, 0.000823, -0.029353, -0.041890, 0.074958, -0.023579, -0.089769, -0.052625, -0.023519, -0.014450, -0.013395, 0.040043, -0.086207, -0.006877, 0.023300, 0.082277, -0.036829, 0.046608, 0.036415, -0.085340, -0.038110, 0.006362, 0.013888, -0.067997, -0.074730, -0.010801, -0.006696, -0.063202, -0.056694, -0.073935, 0.066317, 0.047746, 0.014019, -0.080370, -0.058183, -0.076422, 0.067113, 0.018222, -0.022031, 0.043990, -0.092715, 0.014099, -0.050841, 0.013982, 0.065085, -0.063842, -0.065224, 0.040916, 0.044541, -0.043882, -0.054250, -0.090924, -0.088812, 0.072173, -0.071087, 0.066115, 0.010529, -0.058876, 0.039084, 0.062678, -0.080284, 0.081550, -0.085048, -0.024391, -0.020471, 0.045817, 0.053888, -0.028524, 0.042362, -0.046587, 0.066602, 0.036042, 0.038744, -0.019997, -0.086941, 0.028468, 0.084462, 0.004215, -0.002413, 0.017083, 0.084390, 0.041674, -0.092212, -0.059641, 0.084460, -0.029532, 0.070617, 0.040338, -0.083519, 0.078230, 0.064989, 0.038582, -0.054139, 0.083657, -0.087463, 0.090089, 0.054510, -0.023427, -0.042445, -0.012499, 0.015864, 0.026530, -0.057975, 0.079720, -0.010038, -0.088885, 0.019854, 0.075546, 0.016727, -0.004381, 0.072211, -0.031854, 0.075943, 0.034003, 0.017002, -0.024974, 0.027585, 0.013252, 0.071476, -0.074522, -0.037836, 0.010168, -0.043306, -0.047355, -0.088601, -0.022892, -0.072393, 0.026907, -0.072903, 0.080183, 0.073421, 0.031972, -0.043917, -0.069580, 0.061680, 0.048123, 0.084197, -0.011696, -0.085169, 0.004152, -0.023537, 0.021713, -0.044518, 0.042981, 0.081548, 0.020601, -0.070253, -0.007923, -0.001073, -0.051342, 0.031087, 0.053961, -0.010319, 0.092232, -0.003129, 0.013109, -0.086038, -0.007375, -0.057863, 0.088940, 0.089393, 0.015282, -0.053407, -0.020754, -0.025206, -0.047843, 0.044822, -0.042500, -0.013847, 0.085757, 0.084164, 0.006745, -0.082359, -0.021734, 0.092460, -0.030521, -0.046429, -0.065969, 0.064397, 0.019761, -0.017526, -0.012156, -0.057035, -0.085553, -0.088977, 0.001139, 0.017114, 0.057050, -0.026911, -0.033461, 0.078384, -0.081549, -0.039056, 0.017762, -0.017641, 0.069338, 0.029074, -0.048048, -0.073426, 0.073419, 0.063085, 0.065783, -0.027841, -0.013428, 0.091091, 0.020062, 0.008836, 0.051973, -0.025066, -0.061837, 0.067792, -0.012798, 0.075322, -0.073563, -0.002327, -0.059901, -0.008251, 0.039320, -0.085869, 0.027421, -0.009500, 0.025800, 0.047799, -0.016701, 0.000516, 0.049499, 0.017597, 0.018866, 0.089815, -0.043951, -0.009615, -0.040526, 0.019333, -0.009772, -0.020889, -0.006405, 0.041508, 0.062059, 0.006100, 0.048696, -0.056498, -0.071181, 0.044540, -0.039914, 0.027837, 0.058801, 0.057816, 0.051120, 0.067566, -0.090123, 0.047461, 0.055343, -0.011501, 0.023086, 0.045647, 0.012595, 0.057395, -0.076004, -0.072219, -0.060266, -0.029150, 0.010873, -0.025743, 0.070125, 0.077943, 0.034746, -0.021631, -0.089740, 0.081984, 0.008014, -0.059469, 0.029609, -0.004622, -0.056005, -0.052832, -0.068532, -0.073340, 0.058178, 0.082240, -0.074659, -0.060840, -0.085553, -0.064736, 0.063289, -0.026443, -0.075750, -0.017609, -0.021804, -0.011412, 0.033900, 0.002473, -0.043378, 0.073313, -0.090699, 0.000933, 0.052460, -0.017380, -0.070888, -0.064964, -0.091703, -0.056192, 0.069264, 0.074491, -0.064520, -0.014064, -0.003302, -0.083773, -0.057088, -0.069456, 0.044064, 0.030530, -0.054528, 0.030636, -0.007831, 0.001634, 0.000615, -0.043253, -0.005964, 0.091434, 0.036177, -0.069202, -0.053821, 0.024363, -0.017051, -0.004488, -0.056404, -0.058588, -0.085871, 0.029452, 0.054501, 0.070045, 0.072095, -0.084458, -0.075833, -0.065314, 0.005025, -0.003748, -0.000779, -0.032518, -0.020586, 0.046098, 0.023503, -0.035478, 0.000041, 0.051767, -0.013252, 0.057113, -0.038180, -0.064928, -0.025662, -0.090814, 0.087406, 0.005260, 0.053455, 0.056777, 0.040627, -0.090016, -0.058843, 0.041240, -0.010094, -0.034576, -0.017974, -0.006420, 0.058988, 0.088740, 0.036332, -0.089410, -0.025770, -0.044635, 0.055719, -0.062662, 0.027120, 0.008082, 0.019451, -0.083620, -0.089705, 0.075192, -0.001153, 0.061262, -0.057844, -0.043276, 0.077584, 0.000907, 0.023206, -0.030669, 0.001729, -0.070513, -0.082374, 0.051450, 0.057927, -0.064704, 0.071014, -0.016585, 0.011647, 0.040124, -0.058728, 0.019908, 0.010106, 0.035534, 0.077349, -0.027442, -0.007200, 0.089099, 0.018217, 0.014383, -0.028502, 0.049691, -0.007122, -0.024346, 0.013817, -0.050392, 0.048624, 0.028298, -0.014061, -0.031385, 0.083651, -0.017731, -0.058315, 0.066145, 0.027312, -0.013004, -0.045509, 0.046868, 0.026795, -0.017854, 0.038168, 0.044475, -0.057019, -0.070477, -0.017597, -0.005493, 0.049719, 0.075433, -0.069136, 0.006857, -0.014796, -0.044279, 0.012002, 0.014789, 0.030763, 0.031220, -0.002353, -0.091865, 0.072144, 0.000435, 0.083248, 0.070940, -0.076178, 0.081651, -0.024132, -0.017360, -0.016982, 0.045187, 0.016920, 0.043921, 0.046970, -0.039269, -0.036896, 0.031634, 0.028395, -0.041578, 0.041897, 0.016346, -0.067620, 0.006771, -0.029387, 0.034089, 0.054505, -0.011832, 0.003725, -0.009511, 0.030789, -0.055431, 0.077959, 0.030723, 0.021885, -0.009440, 0.012853, 0.009020, -0.068787, -0.053295, 0.032783, -0.015318, 0.036401, 0.046598, -0.035218, 0.025919, -0.066380, 0.021344, 0.024850, -0.051935, -0.075286, -0.019482, 0.037096, 0.065351, 0.091070, -0.064351, 0.068443, 0.004620, -0.083092, -0.073395, -0.012061, 0.041013, -0.091636, 0.088920, 0.003276, -0.052191, -0.027530, 0.022500, -0.083164, -0.085302, -0.049688, 0.074805, -0.017273, -0.030010, -0.085639, -0.033540, -0.025709, 0.032656, 0.072198, 0.029824, 0.060016, 0.039947, 0.051987, 0.027298, -0.013522, -0.078524, -0.056544, -0.035368, 0.059924, -0.084341, -0.071665, -0.017965, 0.017362, 0.084418, 0.030527, -0.034253, -0.016352, 0.034523, -0.090396, 0.042828, 0.010825, 0.053263, -0.081037, -0.081044, 0.055957, 0.073277, -0.085314, 0.002190, 0.089752, -0.084238, -0.053853, -0.023305, 0.083286, 0.019945, -0.088650, -0.053678, -0.045517, 0.018966, 0.006310, -0.081732, 0.007436, 0.000937, 0.073027, -0.029575, 0.051582, -0.004745, -0.083961, 0.075872, -0.038935, 0.006414, 0.059477, 0.061964, -0.084734, -0.062493, 0.066491, 0.010277, 0.012606, 0.030487, -0.016857, 0.039492, 0.052709, 0.050921, 0.079129, 0.054887, 0.000109, -0.031813, 0.001803, 0.072636, 0.079592, -0.062053, 0.025868, 0.003494, 0.017027, 0.033817, 0.022885, -0.011984, -0.055590, -0.084395, 0.089313, 0.003684, 0.091992, 0.085415, -0.017076, 0.002028, 0.074104, -0.032933, 0.015766, -0.008482, 0.066010, -0.092493, 0.051676, -0.037360, -0.041928, 0.039803, -0.039994, 0.005075, -0.005579, 0.047942, -0.034304, 0.072936, 0.031702, -0.075531, -0.008740, 0.021823, -0.015228, -0.036601, -0.028864, -0.030241, -0.049608, -0.076930, 0.015620, 0.035885, 0.065428, -0.029089, 0.011392, 0.019174, -0.088792, 0.058750, 0.072797, -0.013925, -0.033839, -0.029501, 0.038469, 0.002202, -0.056992, 0.038360, 0.063858, 0.031136, 0.026135, 0.082158, 0.006649, -0.085954, 0.041223, 0.049133, -0.004941, 0.035051, 0.089691, 0.020495, 0.043962, -0.035291, 0.092550, 0.038743, 0.076860, 0.012621, -0.059265, -0.077477, 0.092751, -0.041720, -0.067107, -0.080401, -0.080084, -0.010945, -0.044504, 0.010769, 0.010887, 0.071612, -0.090065, -0.037452, -0.041990, 0.054077, -0.021923, -0.011975, 0.044338, -0.043501, -0.068314, -0.030182, -0.055297, 0.008666, -0.091693, -0.054169, -0.045836, 0.013190, 0.042828, 0.064592, 0.071453, -0.013119, 0.017425, 0.054063, -0.046073, 0.091937, -0.054836, -0.008411, 0.090964, -0.030241, 0.064884, -0.013207, 0.091550, -0.051324, -0.067325, -0.087870, 0.082305, 0.021081, 0.028665, -0.019046, -0.048969, -0.047304, -0.050643, -0.011605, 0.019994, -0.027900, -0.042896, -0.045951, -0.008534, -0.043766, -0.000003, -0.068595, -0.022002, -0.068065, -0.018044, -0.004130, 0.010330, 0.008015, 0.020663, 0.046507, -0.081419, -0.023039, 0.011400, 0.053103, -0.078918, 0.025721, -0.057492, 0.021417, 0.052035, 0.045651, -0.056754, 0.013206, -0.065142, -0.034540, -0.066395, 0.086224, -0.022295, -0.032465, 0.045310, 0.035523, -0.012188, -0.025076, 0.049949, 0.084620, 0.046498, -0.066468, -0.071706, -0.014004, 0.024440, -0.024945, 0.061785, 0.004423, 0.088625, 0.068214, 0.041705, 0.017270, -0.089691, -0.086749, 0.052980, 0.041967, 0.041609, -0.054955, -0.026051, 0.024882, 0.058257, 0.031557, -0.032777, -0.084224, -0.039640, 0.086306, 0.002679, -0.075013, 0.065797, -0.001351, 0.079699, 0.005996, -0.025734, -0.043284, -0.072854, 0.053644, -0.035619, -0.070432, 0.089964, -0.055304, -0.035528, 0.063415, -0.059039, -0.089282, -0.007455, 0.052935, 0.081332, 0.019880, -0.053851, 0.060066, 0.045260, -0.024488, -0.038212, -0.003559, 0.032145, 0.013728, -0.085895, 0.026698, -0.051646, -0.064299, -0.060192, -0.014292, 0.056915, 0.028175, -0.002943, 0.083166, 0.043142, -0.037964, -0.063396, 0.080249, -0.038108, 0.056322, 0.023638, 0.045580, 0.057193, -0.030389, 0.086780, 0.003468, 0.029279, 0.085013, -0.022626, 0.048467, -0.062059, 0.052731, -0.078411, 0.088561, 0.009833, 0.082313, 0.087395, -0.024746, 0.056701, -0.036293, -0.073123, -0.043759, -0.001063, 0.001206, 0.023987, 0.047940, -0.037391, -0.063489, -0.025711, 0.007781, 0.025410, -0.018615, -0.084397, 0.034609, 0.047617, -0.066143, 0.083671, 0.012153, -0.004123, 0.082598, 0.002790, 0.076789, -0.059202, 0.084631, 0.032250, -0.060518, -0.069233, -0.088496, -0.036229, 0.008417, -0.016971, 0.049741, 0.010920, 0.060474, 0.002079, -0.005891, -0.089133, 0.007888, 0.020598, -0.039330, 0.037998, 0.061174, 0.001280, 0.080572, 0.023554, 0.049076, -0.017226, -0.015452, 0.018740, -0.012015, 0.032260, 0.090449, 0.060374, 0.042863, -0.072035, -0.056296, 0.071614, 0.089718, 0.020469, 0.005019, -0.018692, -0.092639, 0.035445, -0.064153, -0.062178, 0.072960, -0.091213, -0.080310, 0.007854, 0.063027, 0.027095, -0.001938, -0.062409, -0.003499, -0.006937, -0.091492, 0.042551, 0.070596, 0.055202, -0.075444, -0.005663, 0.009010, -0.026993, 0.029907, -0.024048, -0.075770, -0.080462, 0.039326, 0.002046, -0.088748, 0.033728, 0.077358, -0.000606, -0.043876, -0.059738, -0.074505, -0.030432, -0.000278, 0.076213, -0.036001, -0.011876, 0.000454, 0.092203, 0.071440, 0.027559, -0.051524, 0.005387, -0.079712, 0.035937, 0.092663, 0.057949, -0.091943, 0.067080, -0.073184, -0.032062, 0.059356, 0.001713, 0.087907, 0.085697, 0.042504, -0.009094, -0.035095, 0.014039, 0.042303, -0.020885, 0.011221, -0.007382, -0.019250, 0.039084, 0.064886, -0.048462, -0.047106, 0.031225, -0.060083, 0.090558, -0.063799, -0.049825, -0.054307, 0.092087, 0.018050, 0.014938, 0.019236, -0.004993, -0.050197, -0.048385, 0.077557, 0.031684, -0.065060, -0.025225, -0.081807, -0.079227, -0.000739, -0.024429, -0.085945, 0.003317, 0.009813, -0.000523, 0.051061, -0.078718, 0.013871, -0.088589, -0.000061, 0.025917, -0.013646, -0.014469, -0.004263, 0.078247, 0.060998, -0.061049, -0.057929, -0.053362, -0.017879, -0.036432, 0.050152, 0.060616, 0.037144, -0.018089, 0.091451, 0.042199, 0.027036, 0.008815, 0.090193, 0.033951, -0.037291, -0.087574, -0.022143, -0.090364, 0.048262, -0.028487, 0.008014, -0.080942, -0.068367, -0.034440, 0.006429, 0.036516, -0.021677, 0.059253, -0.018943, -0.064425, 0.091309, -0.077515, 0.065603, -0.047745, 0.015889, -0.009901, -0.087837, 0.083471, -0.003751, 0.046234, -0.043858, 0.054979, -0.075582, 0.079389, -0.044184, 0.030930, -0.029772, -0.055926, -0.063136, -0.058886, 0.060780, -0.071541, -0.036509, -0.063739, 0.088995, -0.057508, 0.029738, 0.023567, -0.051499, -0.019098, 0.061571, -0.039863, -0.061090, -0.046844, 0.032838, -0.033832, 0.091058, 0.077553, -0.041551, 0.007767, -0.075622, 0.077034, 0.048657, 0.030863, -0.047756, -0.033777, 0.025324, 0.038243, -0.041671, -0.008139, 0.014590, 0.041946, -0.072303, 0.008629, 0.032904, -0.032184, 0.006015, 0.025458, -0.050832, 0.058899, 0.066056, -0.040766, -0.056829, 0.083088, 0.011573, -0.073353, 0.028339, 0.080072, -0.005667, 0.083406, 0.086412, -0.003488, 0.004857, 0.019046, -0.034059, 0.090032, -0.028164, 0.039900, -0.004377, -0.001731, -0.063849, -0.074503, -0.012281, 0.032831, 0.082352, -0.081330, -0.034537, 0.039173, 0.029439, 0.091840, -0.009444, -0.044206, 0.083699, 0.032768, 0.039087, -0.062876, 0.073057, -0.081969, 0.025714, 0.049698, -0.067036, -0.050656, -0.048541, -0.045711, -0.055831, 0.033795, 0.054877, 0.025018, -0.028732, -0.059983, -0.072734, -0.029859, 0.034840, 0.010383, -0.079365, 0.078032, 0.008788, -0.011553, 0.003268, -0.058270, -0.002027, 0.012364, -0.036165, 0.013100, -0.024833, -0.023410, -0.051207, -0.063178, -0.023240, -0.026153, 0.004733, 0.038676, 0.039709, 0.086482, -0.037669, 0.027093, 0.046487, 0.001685, -0.081649, -0.020044, 0.081813, 0.027302, 0.066854, -0.024483, -0.077196, 0.043718, 0.022512, -0.033607, 0.029337, -0.056686, 0.022130, -0.009827, 0.032465, -0.089067, 0.023151, 0.074209, -0.056426, -0.010719, 0.008699, 0.081609, 0.010567, -0.084697, -0.083696, 0.026940, 0.048017, -0.086887, 0.020241, 0.050565, -0.027950, -0.062860, 0.035663, -0.006753, -0.036468, 0.024658, 0.002055, 0.002455, -0.031740, 0.061385, -0.076188, 0.066668, 0.047572, -0.015782, 0.066341, -0.020248, -0.079376, 0.041483, 0.018450, -0.002761, -0.044181, 0.062727, 0.085286, -0.021945, -0.086443, 0.003579, 0.047884, -0.048440, 0.078161, -0.008623, -0.019078, -0.082605, 0.005878, -0.057746, 0.055448, 0.024219, 0.012984, 0.052125, -0.067441, -0.007855, -0.018126, -0.082906, 0.050110, 0.084023, 0.081025, -0.018522, 0.081790, -0.076990, -0.053877, -0.079830, -0.019752, 0.006012, -0.086219, -0.088942, 0.032958, -0.005359, -0.005346, -0.069339, -0.036954, -0.082971, -0.017128, -0.076129, 0.070072, 0.084867, 0.037905, -0.089672, 0.071171, -0.067083, 0.089064, -0.068405, -0.056196, 0.017595, -0.085980, -0.026711, -0.007875, -0.084194, 0.061247, 0.002443, 0.073233, 0.026042, 0.037274, -0.063199, -0.064706, -0.013151, 0.061235, 0.057874, -0.019835, -0.089906, -0.054044, -0.074345, 0.054244, 0.048852, -0.081158, 0.046400, -0.022550, 0.007421, -0.088741, -0.034669, -0.021034, 0.064767, -0.039971, -0.044562, -0.058827, -0.032966, 0.050899, 0.081540, -0.018337, -0.056898, 0.072835, 0.052743, -0.091458, 0.059199, 0.042634, 0.014246, 0.070966, -0.002161, -0.010985, 0.036201, -0.051563, 0.068421, 0.010865, -0.022879, 0.019815, -0.078731, -0.061155, -0.038948, 0.068191, -0.068577, -0.052439, -0.011683, 0.068780, 0.085766, 0.042897, 0.062696, -0.019051, 0.015234, 0.084551, 0.053179, 0.050705, 0.057324, 0.023346, 0.076157, 0.068494, -0.037780, 0.075637, 0.003443, -0.037074, 0.013832, -0.075156, -0.059003, 0.030610, 0.027729, 0.022872, -0.053561, -0.036286, 0.019374, 0.003642, -0.091933, -0.001061, -0.067095, 0.041367, 0.029527, -0.075438, -0.072065, 0.051214, 0.082485, -0.057546, 0.028710, 0.033193, 0.029055, 0.010292, -0.015328, -0.027176, -0.046138, 0.090959, -0.000313, 0.015548, -0.089532, 0.015124, -0.047106, 0.078261, -0.092728, -0.076730, -0.063578, -0.090088, -0.015830, 0.020201, 0.008134, 0.044951, 0.067640, 0.092208, -0.070472, 0.051412, -0.041732, 0.046587, -0.075216, 0.020552, -0.089075, 0.016564, 0.008481, 0.003888, -0.015324, -0.064534, 0.028894, -0.049566, -0.016907, 0.066460, -0.041176, 0.013262, -0.077723, -0.063908, -0.003846, -0.004731, 0.078801, -0.030012, 0.071850, -0.073739, 0.074176, -0.031244, 0.004795, -0.025011, 0.088716, 0.007791, -0.006937, 0.082940, 0.078366, 0.087007, -0.091028, 0.053577, 0.085258, -0.038466, 0.087498, -0.086608, -0.060701, 0.031546, 0.050505, -0.039175, 0.079739, -0.058609, -0.075630, -0.026162, 0.087166, -0.052567, -0.055533, -0.013376, 0.054136, 0.009247, 0.030097, 0.092813, 0.002888, -0.057873, 0.073585, 0.057918, 0.021305, -0.021660, 0.053880, 0.059078, 0.003715, -0.052456, -0.055308, -0.091829, -0.089424, 0.033184, 0.029730, -0.087701, 0.064926, -0.061263, 0.056256, -0.027168, 0.079127, 0.057646, -0.043235, -0.025351, 0.002572, 0.001997, 0.024366, 0.024668, -0.088750, -0.020606, 0.066026, -0.068344, 0.005130, -0.066064, 0.089613, 0.078515, 0.026432, -0.032011, 0.092009, 0.081169, 0.007461, -0.081348, 0.041094, -0.008043, -0.013875, 0.076903, 0.021788, -0.082292, 0.039482, -0.040925, -0.068195, 0.092821, -0.057327, 0.069408, -0.037189, 0.031000, -0.025509, 0.069182, 0.031650, -0.004079, -0.028424, -0.057140, 0.005847, -0.029480, -0.072061, -0.064045, -0.085196, 0.073339, 0.081525, -0.056773, 0.064093, 0.061865, 0.057979, -0.037756, -0.046983, 0.063070, 0.007888, 0.087179, -0.030199, -0.044020, 0.045571, 0.030384, 0.016534, 0.048452, -0.021232, -0.089060, 0.052400, 0.064171, 0.014016, -0.032752, 0.002155, 0.079872, 0.005731, 0.010899, 0.027856, -0.004855, -0.007478, 0.018538, 0.042294, 0.052134, -0.047619, 0.083587, -0.069641, 0.068603, -0.077619, -0.010924, 0.060843, 0.004485, 0.028879, -0.027670, 0.087418, 0.089968, 0.044759, 0.019227, -0.033549, -0.047142, -0.039106, -0.012058, -0.039122, -0.012760, -0.057891, 0.045713, -0.005486, -0.037241, -0.010871, 0.014328, 0.085466, 0.034965, -0.035921, 0.071077, -0.009335, 0.085601, 0.013468, 0.029399, -0.002631, -0.072511, -0.036955, 0.038029, -0.073562, -0.046689, -0.090753, 0.048979, 0.036193, -0.025365, -0.075233, -0.055707, 0.043612, -0.046541, 0.064468, 0.086497, -0.001768, -0.033301, 0.036253, -0.065996, -0.066646, 0.026532, -0.069956, 0.023015, 0.086049, -0.039948, 0.073739, 0.030878, 0.058697, -0.027841, 0.092533, 0.058967, 0.092568, -0.037216, -0.056982, -0.030153, 0.048868, -0.003342, -0.003691, 0.084657, -0.062328, -0.072583, 0.041650, 0.019136, -0.058558, 0.088750, 0.071721, 0.023433, 0.035370, 0.036956, 0.076255, -0.037510, -0.031580, -0.021885, 0.036299, -0.087416, -0.025369, 0.059035, -0.047417, 0.044106, 0.016691, 0.047943, -0.064173, 0.065462, -0.088167, 0.044563, 0.029118, -0.008799, 0.010647, 0.006425, 0.061986, 0.050607, 0.082822, 0.029765, -0.056909, -0.044323, -0.054177, 0.044970, -0.088286, 0.067217, 0.020517, 0.092333, -0.015654, -0.035569, 0.040252, -0.011276, 0.091845, -0.039177, 0.001397, -0.090324, -0.002677, 0.029380, 0.042374, -0.071834, 0.030190, -0.044043, -0.011842, -0.040770, -0.090309, -0.071114, 0.001144, 0.058368, -0.024095, -0.088701, 0.030907, 0.055576, 0.018229, -0.076186, 0.027000, 0.025819, -0.021363, 0.038216, -0.068783, -0.071254, -0.004775, 0.089109, 0.030324, 0.057154, 0.070049, 0.015542, -0.025101, 0.022271, 0.077114, 0.052127, -0.048975, -0.011618, -0.045745, -0.059570, -0.046967, -0.062663, 0.050329, 0.076521, 0.029541, 0.060856, 0.051061, 0.077580, -0.008286, 0.000779, 0.006968, -0.065975, 0.013755, 0.043469, 0.047212, 0.088828, 0.045581, -0.052839, -0.009294, 0.013321, 0.068044, 0.052013, 0.036019, 0.060098, -0.018353, -0.033148, 0.034786, 0.035714, 0.063504, -0.003674, 0.002851, 0.004152, 0.072808, 0.031919, -0.045793, -0.072275, 0.028590, -0.000867, 0.084681, -0.031471, 0.019040, -0.007586, -0.035282, 0.047033, -0.050309, 0.023821, 0.002040, 0.077212, 0.062067, 0.080829, -0.002490, -0.052142, -0.028698, 0.040459, 0.055390, -0.054617, -0.073561, 0.088627, -0.003547, 0.040935, -0.078727, 0.024035, 0.014650, 0.070380, -0.043294, 0.011784, 0.011159, 0.004341, -0.018963, 0.041830, -0.043519, -0.020469, -0.074347, 0.018959, -0.011488, -0.073822, 0.016253, 0.069426, -0.038405, 0.022236, -0.076622, -0.001893, -0.089753, -0.052208, 0.060416, 0.013157, 0.091185, -0.086577, -0.061886, 0.015114, -0.073644, -0.008457, 0.037738, 0.015895, -0.056431, 0.086228, 0.086243, -0.012095, 0.060650, 0.024703, 0.085274, 0.070188, 0.091736, -0.038083, -0.004144, -0.040792, 0.015805, 0.001248, -0.044921, -0.069934, -0.088904, -0.083753, 0.080313, -0.000182, 0.089660, -0.052369, -0.014959, 0.015679, -0.043700, -0.035257, 0.069821, 0.011328, 0.082853, 0.003338, 0.047238, 0.014164, 0.019223, -0.081019, 0.036521, 0.023490, 0.015633, -0.084441, -0.089776, 0.068090, 0.038749, 0.024168, 0.072629, -0.027547, 0.005848, -0.057755, 0.009570, 0.063803, -0.043011, -0.044905, -0.075706, 0.079850, -0.007630, 0.008628, -0.021054, 0.049236, -0.002502, -0.006621, 0.048797, -0.018675, -0.059804, 0.058140, 0.003859, -0.008816, 0.027638, -0.038871, 0.050221, -0.059930, 0.073913, -0.001596, -0.015227, -0.020109, -0.084148, 0.061827, 0.054178, -0.022987, 0.001875, 0.035409, -0.047954, 0.019815, -0.043428, -0.038048, -0.044592, 0.070604, 0.085452, -0.067209, -0.070873, -0.078944, -0.002155, 0.081771, -0.011270, -0.050728, -0.091981, 0.073485, 0.092604, 0.049233, -0.081115, 0.079276, 0.036949, -0.069072, -0.044708, -0.001610, -0.002844, 0.000198, 0.016804, 0.024056, -0.083174, 0.092588, -0.059367, -0.026169, -0.000715, 0.024505, 0.087721, 0.016702, 0.080453, -0.038526, 0.006282, -0.039179, 0.051496, 0.039517, -0.043264, -0.055140, -0.033531, 0.034833, -0.015890, 0.018967, 0.027570, 0.003805, -0.009427, -0.085385, -0.045249, 0.051148, 0.020283, 0.008639, 0.043543, 0.007806, -0.044823, 0.063483, 0.023536, 0.005803, 0.088715, -0.077306, -0.049797, 0.075278, 0.090536, 0.091444, -0.005238, 0.087503, 0.074277, -0.085483, -0.003993, -0.028574, -0.068718, -0.027426, -0.022552, -0.013343, 0.092457, 0.067439, -0.019544, -0.036435, -0.087935, -0.045344, -0.009292, 0.058453, 0.011618, -0.069727, 0.088027, 0.063488, 0.029931, 0.000629, 0.021545, -0.042872, 0.015869, 0.042981, 0.046209, 0.010874, -0.070016, 0.054114, -0.003448, 0.071609, -0.036661, 0.066178, -0.006157, 0.051451, 0.090213, 0.036312, 0.035052, 0.027105, -0.013601, 0.084575, -0.016234, 0.043335, 0.053891, 0.047836, -0.004959, 0.065130, 0.027911, 0.017944, -0.042433, 0.089889, 0.087519, 0.073991, 0.066111, -0.027169, 0.040541, -0.067488, 0.002345, -0.085428, 0.032226, -0.049257, -0.028326, -0.044283, -0.011695, -0.070721, 0.078439, -0.014586, 0.070833, 0.068544, 0.069741, -0.035749, -0.019757, -0.087116, 0.045086, 0.054755, 0.082231, -0.049728, -0.054363, 0.053677, 0.076813, 0.076553, 0.023290, 0.004575, -0.005161, 0.088359, -0.087684, 0.043775, -0.086585, 0.032819, -0.051126, -0.058991, -0.029702, 0.063252, -0.071523, -0.054544, -0.015967, -0.057191, 0.051057, -0.009390, -0.006569, -0.038103, 0.083636, -0.026207, 0.047849, -0.016233, 0.064407, 0.062125, -0.010146, -0.090220, 0.040682, -0.005005, -0.055546, -0.001594, 0.069623, -0.073626, 0.036969, 0.048102, -0.049873, 0.002151, 0.028275, -0.071458, 0.066141, 0.073007, 0.011588, -0.072733, 0.046714, -0.041371, -0.070974, -0.061981, -0.068214, -0.049359, -0.008410, 0.016453, 0.035115, 0.001377, -0.028834, 0.004707, -0.000787, -0.074488, -0.061510, 0.078722, -0.056930, -0.066555, -0.084953, -0.089719, -0.008005, -0.014608, -0.002653, -0.089977, -0.085235, -0.088839, -0.074543, -0.011804, -0.027662, 0.032830, 0.030893, -0.085358, -0.040799, -0.015891, -0.011320, 0.018084, 0.083255, 0.080042, -0.059597, -0.002800, -0.049184, 0.012983, -0.028703, -0.001066, -0.011983, -0.021244, 0.057143, 0.088343, 0.037564, 0.076111, 0.038903, 0.092617, -0.062664, -0.062850, 0.048196, 0.053308, -0.011799, -0.060289, 0.077723, -0.024857, -0.088292, 0.088254, 0.054063, -0.045730, -0.030159, -0.005865, 0.022161, -0.067428, -0.040933, 0.034202, -0.036730, 0.016428, -0.039875, -0.044593, 0.085316, 0.054197, -0.016623, 0.033053, 0.026351, 0.082322, 0.083487, 0.018577, 0.076519, 0.034611, 0.086744, 0.084224, -0.046846, -0.044741, -0.085139, -0.087087, -0.031519, 0.049486, 0.006891, -0.089567, -0.002645, 0.046175, -0.028420, -0.067929, 0.020087, 0.055310, -0.076304, 0.053890, -0.054885, 0.080159, 0.080280, -0.076196, -0.020624, 0.068089, 0.079140, 0.014601, 0.087964, -0.090478, -0.063095, 0.049290, 0.071930, -0.081311, -0.079163, -0.034690, 0.050473, -0.092390, -0.058630, -0.034207, -0.009744, -0.070153, -0.006216, -0.091009, 0.080205, -0.083340, 0.050868, -0.018175, 0.045013, -0.089251, 0.011772, 0.069621, 0.075387, -0.044338, -0.057415, -0.040698, 0.056210, -0.008794, 0.005108, -0.031457, -0.059086, -0.077629, 0.042381, 0.029978, 0.072479, -0.053138, -0.044968, -0.024173, -0.019559, -0.067305, 0.070627, -0.042705, -0.056280, -0.004098, -0.042333, -0.057149, 0.064254, 0.083226, 0.059185, 0.081146, -0.015269, -0.086031, -0.080789, 0.045215, 0.054795, -0.025983, 0.037799, -0.031759, 0.010973, 0.070621, 0.014200, 0.073707, -0.059832, -0.045096, -0.086604, -0.089176, -0.062230, -0.046447, 0.065423, 0.019828, 0.039080, -0.050000, -0.013776, 0.092692, -0.052162, -0.086578, 0.085911, 0.063119, -0.077303, -0.089872, -0.086560, -0.066544, -0.021796, -0.030330, -0.065675, 0.090876, 0.005733, -0.080221, -0.083508, -0.013714, 0.069013, 0.009660, -0.018598, 0.053255, -0.073916, 0.058728, 0.008401, -0.090431, -0.035690, 0.085572, -0.021365, 0.010234, 0.038705, -0.062721, 0.090916, -0.031501, 0.055971, 0.022892, -0.063566, 0.062975, -0.089673, -0.081892, 0.084812, -0.060202, -0.058227, -0.019593, -0.049841, 0.090328, -0.004425, -0.007843, 0.016447, -0.003538, 0.067758, -0.040771, 0.000232, 0.049335, -0.074912, 0.061551, -0.066791, 0.074441, 0.018257, -0.033893, -0.060245, -0.069836, -0.022459, 0.031842, -0.091667, -0.072795, -0.081382, -0.080525, -0.001194, -0.020024, -0.070874, -0.044095, 0.035620, 0.089693, 0.069497, -0.070802, -0.066021, -0.039173, -0.063750, 0.010680, -0.084685, -0.031254, -0.031245, -0.006390, 0.038068, -0.018592, -0.016888, -0.041989, -0.021698, 0.024282, -0.086703, 0.089919, 0.005540, -0.061336, 0.008587, -0.055459, 0.036185, 0.049650, 0.058170, -0.085533, -0.031373, 0.050862, -0.070433, -0.067582, -0.044958, -0.028927, -0.007764, 0.007183, -0.006438, -0.047772, 0.064217, -0.015738, 0.061143, 0.042832, 0.058776, 0.085686, 0.092457, 0.005799, -0.080110, -0.028793, 0.082828, -0.026659, -0.064623, 0.079811, 0.002839, -0.010328, -0.062539, -0.034307, 0.090668, -0.044198, -0.023340, -0.055777, -0.018793, -0.055129, 0.040343, -0.078384, -0.064053, -0.090460, -0.078173, 0.059267, -0.085231, 0.015718, 0.000662, 0.005603, 0.041940, -0.084183, 0.071105, -0.088900, -0.084262, 0.068051, -0.011392, -0.006774, -0.043823, 0.083168, 0.049655, -0.025125, -0.085603, -0.047442, -0.074894, 0.027142, -0.045670, 0.042943, 0.044934, 0.021937, 0.084988, 0.050001, -0.013127, -0.031108, -0.079100, 0.088667, -0.075038, 0.086575, 0.075165, 0.033763, 0.007719, 0.073825, 0.075996, 0.052287, -0.079161, 0.089319, 0.072953, -0.007287, -0.052129, -0.009882, 0.071536, -0.031148, 0.035327, 0.036204, -0.075354, -0.035879, -0.004055, -0.071657, -0.017539, -0.077064, 0.051907, -0.037849, -0.023118, -0.026337, -0.048800, -0.035934, 0.054607, 0.036354, 0.012135, 0.028003, 0.075379, -0.047629, 0.050013, 0.007759, -0.069462, 0.086492, -0.009997, 0.056876, -0.001298, 0.063955, -0.089923, -0.003437, -0.060366, -0.089477, -0.049619, 0.037894, 0.029761, 0.057745, 0.013360, 0.076944, -0.036885, 0.028323, 0.040300, 0.064075, -0.058900, -0.060730, 0.047898, -0.039697, 0.077963, 0.051754, -0.019495, -0.050346, 0.065620, 0.080799, -0.040183, -0.071817, 0.063184, -0.022645, -0.066846, 0.019453, 0.040611, 0.028167, -0.062693, 0.002024, -0.021404, -0.078480, 0.090198, -0.001477, 0.071784, 0.088646, 0.041494, -0.074158, 0.029296, -0.083494, 0.002708, -0.078596, 0.068106, 0.027245, -0.033833, -0.057416, 0.084840, -0.043895, 0.076082, 0.047748, -0.046799, 0.015371, -0.057783, -0.046049, 0.063418, -0.086039, 0.039747, 0.036690, -0.089843, 0.046734, 0.048480, -0.044349, 0.013269, 0.049786, -0.030648, -0.025330, 0.045251, 0.076760, 0.026625, 0.052798, -0.029152, 0.036194, 0.068390, -0.032383, -0.026367, -0.019957, -0.034127, 0.018746, 0.025878, 0.091773, 0.011908, -0.035573, 0.000888, -0.033453, 0.023678, -0.019475, -0.073573, -0.032989, 0.004701, -0.001882, -0.066319, -0.030585, 0.090272, 0.027023, 0.012967, -0.036940, -0.023415, 0.005055, -0.015892, 0.086033, -0.028888, 0.089236, -0.028726, 0.082848, 0.006007, -0.056780, -0.006755, 0.079185, -0.030318, -0.009171, -0.013204, -0.064277, -0.045628, 0.082138, 0.034823, 0.029136, 0.008989, -0.086298, -0.089455, 0.073978, 0.042254, 0.085502, 0.054398, 0.045946, 0.077363, -0.064394, -0.003318, 0.044089, 0.053044, -0.043045, 0.029226, -0.038488, 0.039833, -0.033270, 0.049676, 0.021763, 0.000942, -0.054488, 0.061775, -0.039097, -0.017691, -0.086563, 0.037280, -0.054659, 0.086393, -0.059432, 0.015230, -0.035272, -0.005276, 0.078410, -0.061595, 0.024885, 0.061889, 0.086800, -0.030935, -0.075974, -0.040051, 0.063245, 0.084123, 0.085920, -0.064518, -0.001723, -0.028640, 0.021464, -0.035248, 0.038739, 0.010006, 0.071305, 0.092257, 0.007002, 0.084096, -0.003560, -0.073696, -0.021431, 0.006903, 0.091563, 0.033257, -0.060076, -0.001075, -0.086349, 0.078858, -0.074581, 0.080760, -0.006088, 0.033959, 0.004403, 0.088986, -0.037388, 0.036325, -0.006490, 0.007117, -0.092816, 0.000455, -0.089334, -0.026863, -0.068718, 0.043672, -0.062465, -0.089868, 0.006699, 0.052210, 0.018508, 0.063842, -0.078760, 0.048993, -0.092539, -0.029452, -0.050347, -0.086512, 0.009165, 0.018852, 0.087384, 0.040351, -0.061579, -0.060588, -0.091598, 0.071987, 0.077118, 0.062248, -0.041607, -0.075200, -0.063446, 0.079834, 0.001492, 0.063221, -0.049597, -0.076788, -0.015916, -0.041589, -0.081296, -0.072634, 0.012828, -0.091203, 0.083640, -0.017797, 0.004795, -0.083209, 0.023809, -0.075887, -0.037206, -0.083483, -0.016332, 0.050634, 0.069844, -0.035167, -0.067370, 0.016909, -0.023911, 0.044801, 0.066058, 0.066613, -0.025774, 0.005006, -0.065449, -0.068315, 0.082676, 0.067479, -0.061510, 0.040721, 0.080474, -0.051315, 0.068774, -0.045427, 0.016188, -0.079565, -0.083362, 0.037451, 0.012019, -0.053981, 0.022366, 0.012156, 0.091886, -0.061568, -0.052690, 0.053576, -0.015163, -0.067298, 0.039432, -0.015387, 0.015658, 0.079666, -0.019224, -0.000714, -0.024948, -0.082931, -0.082764, 0.048941, -0.056373, 0.013222, -0.002927, -0.003777, 0.086879, -0.072759, 0.039215, 0.070661, -0.068001, -0.024597, -0.076595, 0.012917, 0.068409, -0.000255, -0.065715, -0.074846, -0.065678, 0.014491, -0.031586, -0.051093, 0.016811, 0.001609, 0.047172, 0.074295, -0.020444, 0.011701, 0.012871, 0.089893, -0.007584, 0.048791, -0.073427, -0.062733, 0.054051, -0.016549, -0.043754, 0.060296, -0.011251, 0.071244, 0.038916, 0.003221, 0.017561, 0.035148, 0.020679, -0.091240, -0.010790, 0.084987, 0.045777, -0.025951, 0.085324, 0.016797, -0.017026, 0.021388, -0.064682, 0.058895, -0.011871, -0.034132, -0.039413, 0.005644, -0.030377, 0.059647, -0.013331, 0.049294, -0.045506, 0.079523, 0.091944, -0.088114, -0.080496, 0.022012, 0.062985, 0.038283, -0.065514, -0.087136, 0.030098, -0.083601, -0.011538, 0.000233, 0.013239, -0.045862, -0.082611, 0.066672, 0.002045, 0.033564, -0.014413, -0.077527, 0.074811, -0.029336, 0.014427, 0.068055, 0.037494, 0.042856, -0.058315, 0.003806, -0.067589, -0.089007, -0.022932, 0.067272, -0.017531, -0.084330, -0.006289, 0.010403, 0.049004, 0.021111, -0.059283, 0.053000, 0.026268, -0.047101, 0.026955, 0.018017, 0.044426, 0.073241, 0.075003, -0.071137, -0.026813, -0.003120, 0.007097, 0.053029, 0.050660, -0.084626, 0.021251, -0.053381, 0.062495, 0.019706, 0.031013, 0.021320, 0.003512, -0.037385, -0.059642, 0.047652, 0.075074, 0.092044, -0.049504, -0.015015, 0.007200, 0.053080, -0.029297, 0.074469, 0.027934, 0.084937, 0.001658, 0.042984, -0.092323, 0.010927, -0.009630, 0.029039, 0.084614, 0.040055, -0.003405, -0.069609, -0.081944, 0.029082, -0.092732, 0.056945, -0.004396, -0.051211, 0.068094, -0.011325, -0.008711, 0.007585, 0.074419, -0.072147, -0.066169, 0.032473, -0.036510, -0.090750, 0.062659, 0.069697, 0.018219, 0.068607, 0.049743, -0.046744, -0.050816, -0.057167, -0.086897, -0.026616, -0.029613, -0.021318, -0.046212, -0.080503, 0.011132, -0.003778, 0.062748, -0.027854, 0.075816, 0.032955, 0.013750, -0.005927, 0.066472, 0.059318, 0.012230, -0.054179, -0.043601, 0.011509, 0.039658, 0.089484, -0.053842, 0.072889, 0.059805, 0.058028, -0.030145, 0.025849, -0.082160, -0.086837, -0.085648, 0.062979, -0.063143, 0.065893, -0.006163, 0.077468, 0.042578, 0.024803, -0.046169, 0.061890, 0.079467, 0.057454, -0.048801, -0.013232, 0.091925, -0.075320, 0.063634, -0.055502, 0.051600, -0.071635, -0.044059, 0.088290, -0.075034, -0.022860, -0.006111, -0.001832, -0.010537, 0.088321, 0.058890, 0.014341, 0.060261, -0.001912, -0.085368, 0.069377, -0.021236, -0.052140, -0.005038, -0.060870, 0.079193, -0.051681, -0.066372, -0.023445, 0.070323, -0.074748, 0.048891, -0.000176, 0.034155, -0.057282, 0.060484, 0.036815, -0.042872, -0.069364, 0.078225, -0.062679, 0.032639, -0.082935, 0.002654, -0.022295, -0.085907, 0.085983, -0.024035, -0.009267, -0.046822, -0.080534, 0.088524, 0.005880, 0.002603, 0.009404, 0.049392, 0.007887, 0.059484, 0.067644, -0.027526, 0.071238, -0.041663, -0.079875, -0.085846, 0.066242, 0.022074, -0.023665, -0.042289, -0.018656, 0.064292, 0.050411, 0.038320, -0.061280, -0.055291, 0.059892, -0.028256, 0.036240, 0.071877, 0.009315, 0.043537, 0.014927, 0.043396, 0.026942, 0.038578, -0.000131, -0.008871, -0.058965, 0.058667, -0.031159, 0.064147, 0.079133, 0.011904, -0.076541, 0.055268, 0.025479, -0.049038, 0.037110, 0.078506, 0.026514, 0.022139, -0.083988, -0.008314, 0.050469, -0.056349, 0.050149, -0.011019, -0.054264, 0.004459, 0.038058, -0.056475, -0.088903, -0.082745, 0.071908, -0.019191, 0.001507, 0.005743, -0.052773, -0.036068, -0.062138, 0.043253, 0.055916, 0.084393, 0.052863, -0.053905, -0.056533, -0.003541, 0.062272, 0.025426, -0.035698, -0.000400, -0.054105, -0.075355, -0.006315, -0.013573, 0.091717, 0.040352, -0.062930, 0.011513, -0.078755, 0.056313, 0.066265, 0.073774, -0.053356, -0.031430, -0.061568, -0.009235, -0.054200, -0.066227, 0.015559, -0.055503, 0.037928, 0.034377, -0.027909, -0.052070, -0.021950, -0.008084, -0.023241, 0.044257, 0.041960, -0.054486, -0.073206, -0.086104, -0.034394, -0.055097, -0.050345, -0.073851, 0.089609, 0.091310, 0.033832, -0.069724, 0.013301, -0.002572, -0.065747, -0.088197, -0.022340, -0.023332, -0.032882, 0.009041, -0.052913, 0.023063, 0.040499, 0.080368, -0.045289, -0.089078, -0.087904, -0.056753, -0.040476, -0.090351, 0.049276, -0.039274, -0.074380, -0.044761, -0.028097, 0.026781, -0.067085, -0.007008, -0.059876, -0.032123, 0.030932, 0.045047, -0.085978, 0.076947, 0.007121, 0.069890, 0.078338, -0.083631, 0.059180, -0.004391, -0.017853, -0.026790, 0.048817, 0.033250, 0.043799, -0.087510, -0.002790, 0.053081, 0.033434, -0.050258, -0.006653, 0.080437, 0.013112, -0.072146, -0.067144, -0.024088, -0.037297, -0.074188, -0.019033, 0.017700, 0.023871, 0.046315, -0.021096, 0.032154, 0.021111, 0.027326, -0.067410, 0.053913, 0.006483, 0.002474, -0.049875, 0.065819, 0.041177, 0.041423, -0.044716, -0.030059, 0.012566, 0.031029, -0.065795, -0.058665, -0.013972, 0.046254, -0.030045, -0.088531, -0.089284, -0.048475, 0.009029, -0.077045, -0.016649, 0.047798, -0.062950, 0.017182, 0.043309, 0.079147, -0.055694, 0.016143, -0.070430, 0.076558, -0.019547, -0.032887, -0.011051, 0.013027, -0.023661, -0.038777, -0.067753, -0.045060, 0.057488, -0.047409, -0.060203, 0.023498, 0.018034, 0.044704, -0.027852, -0.070361, -0.051987, -0.015501, -0.082034, -0.042593, 0.084284, 0.064430, -0.004434, -0.038712, -0.005314, 0.014710, -0.060276, 0.056245, 0.067302, 0.000729, -0.063158, 0.000477, 0.082148, 0.015727, -0.004466, 0.059303, -0.043947, -0.030456, -0.048936, 0.040764, 0.064995, -0.012413, -0.018666, -0.090894, 0.049018, 0.059705, 0.035965, 0.018463, 0.064249, 0.073378, -0.032906, -0.016607, -0.044218, 0.034872, -0.001563, 0.068492, -0.088496, -0.050960, -0.003325, 0.058941, 0.010283, 0.039202, -0.038395, 0.084394, -0.000677, -0.005045, -0.044979, 0.073366, -0.043592, 0.086234, 0.029963, -0.017182, 0.029762, -0.061624, -0.054803, -0.014778, 0.036654, 0.064327, 0.027442, 0.012922, 0.054565, 0.023007, -0.076557, -0.024988, 0.082983, 0.054947, -0.062600, 0.071688, 0.025501, 0.033582, 0.003295, 0.072721, 0.003196, -0.079704, 0.027673, -0.034601, -0.004397, 0.066887, 0.054661, 0.090473, 0.015159, -0.067751, -0.026912, -0.051359, -0.023664, 0.005604, -0.050605, 0.039937, -0.007139, 0.002511, -0.032004, -0.041983, 0.008097, 0.032102, -0.024040, 0.009600, 0.072091, 0.025587, -0.080849, -0.045139, 0.039413, -0.061366, 0.080359, -0.037622, -0.074543, -0.019947, -0.084328, -0.027059, -0.079586, -0.028705, -0.070136, -0.023733, 0.028296, -0.028965, -0.055623, -0.002817, 0.039711, -0.026035, -0.057251, -0.065401, -0.069589, 0.021863, 0.003404, -0.001668, 0.011284, 0.000448, 0.061252, -0.083595, 0.072036, -0.044708, 0.060952, 0.070094, -0.015227, 0.052504, 0.061999, 0.022963, -0.088048, -0.053281, -0.027385, -0.086113, -0.078380, 0.073792, -0.013752, -0.091631, 0.038295, 0.017789, 0.009661, -0.039280, 0.081244, 0.059203, -0.002433, 0.083100, -0.090309, -0.079156, 0.015380, 0.037964, 0.089419, 0.039355, 0.057420, -0.060681, 0.071175, 0.082535, 0.000456, 0.012837, 0.047581, -0.085962, 0.057514, 0.089394, -0.006543, -0.065002, -0.079066, 0.003209, -0.029735, 0.059505, 0.011829, -0.067341, -0.031458, -0.041455, -0.067907, -0.060867, 0.067593, 0.011129, -0.013183, -0.092171, -0.020861, 0.046309, -0.061026, -0.015339, 0.011881, -0.037525, -0.015351, 0.092789, -0.004044, -0.080349, 0.085118, 0.045769, 0.017485, 0.089663, -0.052510, 0.035547, -0.078068, -0.025987, 0.049066, 0.052106, -0.080912, 0.034337, 0.018832, -0.030895, 0.003813, -0.091564, -0.083799, -0.023507, -0.089783, -0.018179, -0.008577, 0.076859, 0.039047, 0.003501, 0.046368, 0.022455, 0.051488, 0.023435, 0.073698, -0.012128, 0.077816, 0.062264, -0.084751, 0.076414, 0.013998, -0.036707, -0.020130, -0.012168, 0.084577, 0.003338, 0.049123, -0.087220, 0.058904, 0.039514, 0.043642, 0.065213, 0.054621, -0.035396, 0.033480, -0.045542, -0.063833, 0.053176, -0.070790, 0.003135, 0.052778, -0.042878, 0.064011, -0.021729, -0.003557, -0.000355, -0.067170, -0.060031, 0.028813, -0.048815, 0.017170, 0.040325, 0.039825, -0.050358, -0.029269, 0.090207, 0.021828, 0.012617, -0.061061, -0.053995, -0.002776, -0.020499, 0.007467, 0.003739, 0.029283, -0.020074, -0.044520, 0.073619, 0.066227, -0.014848, -0.003701, -0.065353, 0.031401, -0.056820, 0.029883, -0.033672, 0.001157, -0.090046, -0.060593, 0.084105, 0.046627, 0.075899, -0.033801, -0.027641, -0.088327, 0.040492, -0.088695, 0.084460, 0.076693, -0.053841, 0.076543, 0.067647, 0.002934, -0.036023, -0.079937, -0.069626, 0.045489, 0.083414, 0.029610, 0.037948, 0.034420, 0.013118, 0.048721, -0.053911, 0.045827, -0.059553, 0.007651, -0.015662, 0.001349, 0.045191, -0.044605, 0.004658, -0.012676, 0.025845, 0.039462, -0.046405, 0.026388, 0.092624, 0.026850, -0.014012, -0.044028, 0.052927, -0.064863, 0.048067, -0.058954, -0.007455, -0.070485, 0.091794, -0.085605, -0.001847, 0.055090, 0.009487, -0.065215, 0.068923, -0.032921, -0.007643, -0.024805, 0.054922, 0.017501, -0.038936, -0.065467, 0.047558, -0.072166, -0.043645, -0.023328, -0.034160, 0.020441, -0.031173, 0.074723, 0.005061, 0.049912, -0.065787, 0.058108, -0.027049, 0.040050, -0.058925, -0.075895, -0.090616, -0.041229, -0.073059, -0.013262, -0.001844, -0.062705, -0.092345, 0.088948, -0.038837, 0.069332, 0.085803, -0.061020, 0.047794, -0.033305, -0.010538, 0.038074, 0.069523, -0.047409, 0.006342, -0.013662, 0.013513, -0.080815, -0.052401, 0.026700, -0.070405, 0.062079, 0.032201, 0.055455, -0.063759, -0.062476, 0.086755, 0.076462, 0.067410, 0.092763, 0.074747, -0.059548, 0.030557, 0.039207, -0.003149, -0.019808, -0.009860, 0.014672, -0.024822, 0.011672, -0.076696, 0.034032, -0.018719, -0.012594, -0.013065, -0.043573, 0.024146, 0.077395, -0.044958, -0.081469, 0.086932, 0.029360, 0.065848, -0.010757, 0.085158, -0.008400, 0.006697, 0.079738, -0.032944, 0.073701, -0.012240, 0.068230, 0.078370, -0.049582, -0.068876, 0.020404, -0.016466, -0.070126, 0.071368, 0.085561, 0.020392, -0.024569, 0.040423, 0.009136, -0.015489, -0.017679, -0.049848, -0.019086, 0.010724, -0.063477, -0.002602, 0.050221, 0.001054, -0.048307, -0.090332, -0.034636, 0.027955, -0.011628, -0.044521, 0.050223, 0.075463, -0.070854, 0.024512, 0.013838, 0.014004, -0.047700, 0.092638, -0.081278, -0.068848, -0.041944, -0.048983, 0.087631, 0.076873, -0.008030, -0.045941, 0.080124, 0.013170, -0.027685, 0.056153, -0.065448, -0.081680, 0.028154, 0.086868, 0.088842, -0.069686, -0.044757, -0.028455, 0.044877, 0.037440, -0.009487, -0.057152, 0.001292, -0.035594, -0.018222, -0.078018, 0.001550, 0.008794, 0.000975, 0.026667, 0.039878, 0.069264, 0.080328, 0.021130, 0.034697, -0.075018, 0.021915, 0.025097, -0.037435, 0.061285, 0.015103, -0.086347, -0.027302, -0.029639, -0.071367, -0.081056, 0.059016, 0.073677, -0.070334, -0.067802, 0.077519, 0.002427, 0.092457, 0.030744, 0.019930, -0.009390, 0.073099, -0.061779, 0.070510, 0.008227, 0.062661, 0.014664, -0.047956, -0.087900, -0.006377, 0.091840, 0.027046, 0.037730, 0.026471, -0.020507, 0.060799, -0.001669, -0.020769, 0.060130, 0.073718, 0.014382, 0.075117, -0.031447, 0.086036, 0.082601, -0.050034, -0.067072, 0.077487, -0.027162, -0.058922, -0.000849, -0.000953, -0.007575, -0.053352, 0.007125, -0.066813, 0.008253, 0.018584, 0.017413, -0.035567, -0.008251, -0.054501, -0.034718, -0.027144, 0.077469, -0.008872, -0.004512, -0.085665, 0.047630, -0.022086, -0.000846, -0.000064, -0.086531, -0.047907, 0.003621, 0.079512, -0.007301, -0.072496, 0.088361, -0.015753, 0.005581, -0.022686, -0.022339, -0.059778, -0.031807, 0.039795, 0.061285, 0.074193, 0.013460, -0.076086, -0.080289, -0.074890, -0.091934, 0.089977, -0.032535, -0.074049, -0.089332, -0.085501, -0.068739, -0.025822, 0.054876, 0.002180, -0.035329, 0.079545, -0.016741, -0.004432, -0.066914, -0.056785, 0.024435, 0.064221, 0.062415, -0.089859, -0.030607, -0.092532, 0.006507, 0.029534, 0.063422, 0.001242, -0.011115, 0.039272, -0.032601, 0.073592, -0.039736, 0.065520, 0.009216, 0.028680, 0.057483, 0.038820, -0.034706, -0.021057, 0.025745, 0.041371, 0.063678, 0.052329, -0.046946, 0.050575, -0.071407, 0.022533, -0.017561, -0.005157, 0.027690, 0.003060, -0.034197, -0.018319, 0.031016, 0.023740, -0.041952, -0.003601, 0.087728, 0.075401, -0.019669, 0.033489, -0.015716, 0.025319, -0.054530, -0.020993, 0.033796, -0.084181, -0.086576, -0.091277, 0.079221, 0.037980, -0.074306, -0.014427, -0.029478, 0.046741, -0.010506, -0.021990, -0.059216, -0.071432, -0.062269, -0.003382, 0.063323, 0.051393, -0.078336, -0.048998, 0.034374, 0.003187, 0.060808, 0.064140, 0.029162, -0.009981, 0.041061, -0.013607, -0.089250, -0.008470, -0.074926, 0.069260, 0.032171, -0.069519, -0.032165, -0.024533, 0.090242, -0.008727, -0.050187, -0.073815, -0.012268, -0.042385, 0.071609, -0.038370, -0.022434, -0.027784, 0.083143, 0.020697, -0.089833, 0.031584, -0.090285, -0.029415, 0.008914, 0.000894, -0.082225, -0.086864, 0.015972, -0.091069, -0.064967, -0.034348, 0.000975, -0.058337, -0.043896, -0.073122, 0.023253, -0.000410, 0.017617, 0.050829, -0.026242, 0.041278, 0.079125, -0.076534, -0.013318, -0.084255, 0.031662, 0.084740, 0.079283, 0.081202, -0.075598, -0.034867, -0.089592, -0.035092, 0.035427, 0.002792, 0.071596, 0.004657, 0.088174, 0.063318, 0.073053, -0.091715, -0.035961, 0.045379, 0.020700, 0.060531, 0.035374, -0.002263, -0.032420, 0.067441, 0.041227, -0.011871, -0.061211, 0.072677, 0.051386, -0.089524, 0.017645, -0.033085, 0.036038, -0.050755, 0.057781, -0.009601, -0.054012, -0.045876, 0.030098, 0.089104, 0.005853, -0.034883, 0.012335, -0.024895, -0.035874, 0.048212, -0.040292, 0.033115, 0.056098, 0.057531, -0.044302, -0.072029, -0.082566, 0.041142, 0.013043, -0.089049, 0.041611, -0.019214, 0.061591, -0.010924, -0.054464, -0.074600, 0.089771, -0.088963, -0.062858, 0.032522, 0.031834, 0.092131, -0.009128, 0.040045, 0.062042, 0.045193, 0.023215, 0.004228, -0.033757, 0.081186, 0.053085, -0.002374, 0.057884, 0.024751, -0.007524, 0.075070, 0.007515, -0.061847, 0.089041, -0.063211, -0.030782, -0.051763, -0.091602, 0.033110, -0.052055, 0.057857, 0.065430, -0.069206, -0.053190, -0.086487, -0.064217, -0.028233, 0.016788, -0.091095, -0.075147, 0.040208, 0.041844, -0.021771, 0.076109, 0.051216, -0.062788, 0.075536, -0.035637, 0.000677, 0.055079, 0.042006, 0.007414, -0.056550, -0.042525, 0.036800, -0.016617, -0.076006, 0.012047, 0.049036, 0.077956, 0.037286, -0.072588, -0.015016, 0.001009, 0.041419, -0.066206, 0.014077, 0.023014, -0.089264, -0.072551, 0.016294, 0.066010, 0.060890, 0.091886, 0.069799, 0.001840, -0.059194, -0.010245, -0.011093, 0.032506, -0.001831, -0.058049, -0.046811, 0.051830, 0.009654, -0.018338, 0.085745, -0.091472, 0.021638, -0.022084, -0.065361, 0.092169, -0.011416, 0.035180, 0.046331, -0.074833, 0.090729, 0.073469, -0.030153, -0.026974, 0.050203, -0.043854, 0.002229, 0.065014, 0.055146, -0.035345, -0.069022, -0.024862, -0.016172, 0.030766, -0.011355, 0.083110, -0.058630, -0.076348, 0.042918, 0.053785, -0.043444, 0.015560, 0.005045, 0.037015, 0.050404, -0.019283, -0.054779, -0.022276, 0.035672, 0.028297, -0.089776, 0.050051, -0.087637, -0.010870, -0.048766, -0.020996, 0.022013, 0.079425, 0.083690, 0.091511, -0.003304, -0.015011, -0.049446, -0.077447, -0.030084, 0.081589, -0.087471, -0.053290, -0.046805, -0.032337, 0.020396, -0.078543, 0.085886, 0.027320, 0.029345, 0.048364, -0.083712, 0.049829, -0.072006, -0.037158, 0.072298, 0.060329, 0.081300, 0.029554, 0.004270, 0.036380, 0.048110, -0.009004, -0.053386, 0.033225, -0.058493, 0.070044, -0.064641, 0.013463, 0.080061, 0.022388, -0.028874, 0.078830, -0.027201, -0.033220, 0.016210, 0.063830, -0.008491, 0.083054, 0.000214, 0.018342, -0.072641, -0.061557, 0.052211, -0.078340, -0.074243, 0.039196, 0.060070, 0.071387, -0.091351, 0.064582, 0.052767, 0.052022, 0.057050, -0.030219, 0.058575, -0.052211, 0.041697, -0.086843, -0.048670, -0.041449, 0.025708, 0.073397, -0.085860, -0.052084, 0.072803, 0.056195, -0.051896, 0.036121, 0.068611, -0.008686, -0.042961, 0.068606, -0.078474, 0.055969, 0.076127, 0.084382, -0.037933, 0.057654, -0.077989, -0.077498, -0.039509, -0.058610, -0.079273, 0.066344, 0.088852, 0.070161, 0.014739, 0.007718, 0.053819, -0.037342, 0.041318, -0.018538, 0.009668, -0.028920, 0.071316, -0.017234, 0.026308, -0.063603, -0.015601, -0.033985, 0.023285, -0.073169, 0.092406, 0.060290, 0.062462, -0.032625, 0.052162, 0.008370, -0.039127, -0.037511, 0.012673, -0.033417, 0.023860, -0.055104, 0.029640, 0.005179, 0.026665, -0.057921, -0.026704, -0.078066, -0.018161, 0.081127, 0.001047, 0.070621, -0.092063, 0.023946, -0.087738, -0.026665, -0.042752, 0.001446, -0.015329, 0.020894, -0.039393, 0.063912, 0.085547, 0.005900, -0.049485, -0.062198, -0.071888, -0.049179, -0.074724, -0.039592, -0.043050, 0.007554, -0.072649, 0.058270, 0.038443, 0.041981, 0.072973, -0.014622, -0.075765, 0.001081, -0.090719, 0.013943, 0.025795, -0.082106, 0.010454, 0.060009, -0.062484, 0.013488, -0.007270, 0.006821, 0.033497, 0.058452, -0.080507, 0.029677, 0.003088, 0.046710, 0.047150, -0.049314, 0.066418, -0.023962, 0.064855, -0.087624, -0.051224, -0.061194, 0.033643, 0.068281, -0.075328, -0.043435, 0.038588, 0.071534, 0.039664, -0.025667, 0.038756, -0.006779, -0.072419, -0.059125, 0.049385, -0.078893, -0.076288, -0.073927, -0.070589, 0.008387, 0.064729, -0.039115, 0.081242, 0.048583, 0.083775, 0.022609, 0.077230, -0.015865, 0.073043, 0.014901, 0.081223, 0.017440, 0.016609, 0.030531, 0.052504, 0.032390, -0.056566, 0.063060, 0.034967, -0.075969, -0.031651, 0.019292, 0.021414, 0.008429, 0.026644, -0.014412, 0.021597, -0.003176, -0.018302, 0.081993, 0.059563, -0.027153, 0.075186, -0.001674, 0.040674, -0.005310, 0.016557, -0.046195, 0.038327, -0.052312, 0.058145, 0.053492, 0.035513, 0.034010, -0.060653, -0.028879, 0.072597, 0.077149, -0.016710, -0.027676, 0.006684, 0.055764, 0.015949, -0.062536, -0.079641, 0.090844, -0.089633, -0.050327, 0.004953, 0.026130, -0.023186, -0.015599, 0.078722, 0.051189, -0.060212, 0.068452, 0.064255, -0.062224, -0.005877, 0.018833, 0.013771, 0.001128, -0.013044, -0.049386, -0.012898, -0.027512, 0.079833, 0.057398, 0.009930, -0.030603, -0.002284, -0.010435, 0.080587, -0.082516, -0.060959, -0.038855, -0.057285, -0.068789, -0.033547, -0.044761, 0.028730, -0.026555, 0.012164, -0.066596, 0.051411, -0.043058, -0.044241, -0.051926, 0.023422, -0.022976, -0.006867, -0.024232, -0.016813, -0.067656, 0.029518, 0.001596, -0.010801, 0.034406, 0.050525, -0.075199, 0.012844, -0.090050, -0.001435, 0.061110, 0.058544, -0.069733, -0.044826, 0.072444, -0.063130, -0.044537, 0.073757, 0.079920, 0.061077, 0.021209, -0.068833, 0.015317, 0.007495, -0.079303, 0.088191, -0.030698, 0.010964, 0.006633, 0.013173, -0.043003, -0.042374, 0.031600, 0.000696, -0.082694, -0.033659, 0.083677, 0.002554, -0.013214, -0.043944, 0.037950, -0.030348, 0.072652, 0.089133, -0.005151, -0.024016, 0.071172, -0.090646, 0.060960, -0.083947, 0.011279, 0.047209, -0.008097, -0.084309, 0.062431, 0.073793, -0.088273, -0.053482, -0.004773, -0.032389, -0.044396, 0.030970, -0.008087, -0.089563, -0.039530, 0.007294, 0.027623, 0.067646, -0.018674, 0.027151, -0.001827, 0.075656, 0.048260, 0.004391, -0.061490, -0.067212, 0.075335, -0.022065, -0.030423, 0.077431, 0.010498, -0.009423, 0.039040, -0.057149, -0.030596, 0.038385, -0.069541, 0.051348, -0.080305, -0.056718, 0.089265, 0.061408, 0.046328, -0.083788, 0.017317, -0.078981, 0.000854, 0.063480, -0.000015, 0.002641, 0.076897, 0.052135, 0.090637, 0.033457, -0.029074, 0.064322, -0.001053, 0.047643, -0.019598, -0.001364, 0.038334, 0.066982, -0.087481, 0.033612, -0.005214, -0.019311, 0.066407, -0.067664, -0.034892, 0.081177, -0.036700, 0.036071, 0.016039, 0.029991, -0.035515, -0.040184, 0.086811, 0.018748, 0.067787, -0.054633, 0.029151, -0.087362, -0.025727, 0.066252, 0.034758, 0.088949, 0.083045, 0.071666, -0.050427, 0.092742, 0.000121, -0.053508, 0.018324, 0.038919, 0.016958, 0.006759, -0.055860, 0.076219, -0.016003, 0.017937, -0.090025, -0.004054, -0.085550, 0.032080, 0.089692, -0.044867, -0.075608, 0.037015, 0.043978, -0.057105, 0.074281, 0.047272, -0.044037, 0.000038, -0.039269, -0.001075, 0.023897, -0.013454, -0.005637, 0.035971, 0.082677, 0.063006, 0.091407, 0.023922, -0.062068, 0.063269, 0.081281, 0.087346, -0.035393, -0.054648, 0.078703, -0.084457, -0.011793, -0.039300, -0.034023, 0.006609, 0.064526, -0.056711, 0.086827, -0.063988, -0.041984, 0.008283, -0.056245, 0.072194, -0.021100, 0.082955, 0.089126, 0.004501, -0.074555, -0.008593, -0.040047, -0.058593, -0.006098, 0.017312, 0.075669, -0.001436, 0.033835, 0.016700, -0.078565, 0.056384, -0.082919, -0.050189, -0.071354, 0.016486, 0.035050, -0.024434, 0.083677, 0.074299, 0.020788, 0.070024, 0.012061, 0.087603, -0.083483, 0.091703, 0.070023, -0.055946, 0.005292, -0.011012, 0.029788, 0.051973, -0.080860, -0.021316, 0.038806, 0.028855, 0.065803, -0.003523, 0.083155, -0.000326, 0.091437, -0.044526, 0.024290, 0.025837, -0.018276, -0.063863, -0.040203, -0.029746, 0.044484, -0.044391, -0.063592, 0.054038, -0.063611, -0.005408, -0.051193, -0.081650, -0.021092, 0.070016, -0.005263, -0.082516, 0.059898, 0.016743, 0.074830, -0.040624, -0.023220, 0.078877, -0.020401, -0.010702, 0.057388, 0.090801, -0.014445, -0.075160, 0.076623, 0.044365, -0.078663, 0.062217, -0.025953, 0.015383, -0.031433, 0.035640, 0.053916, 0.036829, 0.014622, -0.017753, 0.069118, -0.077810, 0.046673, -0.010339, -0.025637, -0.030862, -0.070486, 0.041433, 0.026880, 0.033184, 0.004450, -0.066903, -0.035060, -0.062588, -0.036733, 0.035985, -0.051175, -0.092185, 0.090016, -0.074689, 0.090841, -0.040507, 0.042925, -0.080634, -0.091381, 0.088370, -0.061500, 0.028863, 0.005175, 0.027948, 0.052875, -0.018524, -0.073542, -0.085111, 0.048585, -0.043635, 0.037564, 0.071509, -0.037369, -0.019790, 0.060598, 0.029966, 0.042307, 0.003384, -0.088021, -0.045570, -0.036403, -0.092256, -0.086955, 0.031183, 0.045961, 0.086505, 0.055243, -0.048451, 0.073388, 0.016941, -0.058998, -0.061621, -0.087096, -0.027646, -0.082220, -0.008302, -0.027595, -0.049051, 0.057808, 0.047192, -0.064472, -0.005379, -0.006031, 0.013859, -0.065639, -0.000592, 0.068010, 0.031028, -0.033510, -0.061628, 0.068108, 0.059110, 0.051063, -0.019299, -0.083023, -0.061054, -0.081905, 0.070420, -0.051859, 0.001496, -0.018170, 0.052796, -0.029525, -0.038172, -0.013735, 0.088166, -0.019143, 0.065320, 0.049414, 0.081597, 0.004055, 0.073394, -0.068074, 0.065320, 0.069065, -0.052114, -0.004424, 0.011996, -0.075031, 0.021315, -0.088429, 0.011424, -0.033592, -0.014108, 0.033437, -0.047236, -0.005219, 0.081556, 0.085509, -0.073248, -0.055013, -0.062431, -0.019154, -0.069867, -0.008372, 0.012608, -0.052742, 0.072389, 0.072641, 0.038621, 0.038319, -0.068737, 0.065382, -0.038797, 0.063188, 0.060024, -0.049778, 0.032554, 0.036169, 0.033330, 0.053669, 0.031163, 0.019067, -0.055136, 0.091239, 0.036510, 0.049744, -0.042537, 0.004180, -0.044573, -0.010235, -0.038781, 0.048443, -0.016760, 0.087066, -0.035993, -0.063702, -0.091635, 0.041352, 0.013039, -0.090470, -0.062565, 0.054653, -0.083686, -0.024783, -0.014933, -0.051745, 0.081851, 0.016226, -0.043151, 0.005249, -0.023393, 0.064891, -0.044104, 0.081576, -0.079127, -0.008051, 0.063269, 0.090985, -0.025543, -0.032290, 0.017469, 0.076363, 0.054262, 0.023601, -0.018842, 0.060943, -0.042601, 0.016008, -0.023009, -0.002667, -0.026149, -0.012660, 0.085861, -0.055390, -0.020038, 0.033686, -0.076990, 0.035265, 0.090834, 0.039025, 0.081457, -0.071994, -0.032322, -0.016854, -0.066933, 0.082100, 0.003397, 0.040516, 0.023253, -0.064198, 0.055628, 0.025438, 0.091226, -0.070535, 0.027738, 0.063241, -0.020960, -0.036642, -0.012301, 0.085929, 0.091601, -0.053920, 0.002384, 0.003773, -0.029274, 0.026536, -0.088755, -0.034760, 0.018400, -0.018367, -0.030356, -0.071102, 0.087271, -0.016355, 0.009143, 0.028510, -0.011763, 0.072904, 0.092078, 0.021068, 0.057874, 0.082985, -0.004510, 0.080423, -0.011900, 0.013957, -0.019623, -0.054600, -0.056041, -0.044455, 0.005045, 0.032877, -0.044025, -0.068489, -0.061536, 0.017418, -0.061354, -0.076839, 0.086389, -0.052060, -0.066226, -0.052337, 0.002810, 0.018194, 0.016599, 0.057752, -0.041890, -0.026762, 0.020241, -0.024878, -0.044483, -0.081796, -0.033440, 0.010953, -0.048162, -0.004272, -0.044323, -0.059306, -0.078841, 0.049891, -0.055961, -0.036747, 0.082066, 0.011390, -0.025891, -0.016510, 0.023135, 0.033168, -0.078960, 0.067541, 0.033874, -0.030787, -0.069116, -0.059227, 0.019528, -0.048117, -0.001599, -0.015227, -0.065242, -0.088239, 0.033072, 0.032820, -0.065713, -0.063765, 0.083771, -0.031582, 0.062027, 0.006230, 0.062418, -0.004346, -0.017068, 0.007719, -0.069966, 0.005136, -0.070387, -0.035834, -0.041088, -0.017758, 0.092692, 0.052262, 0.018317, 0.035653, 0.008607, -0.047089, 0.005600, 0.076868, 0.007648, -0.061126, -0.021499, 0.023400, -0.084128, 0.009641, 0.070906, -0.041935, -0.037670, 0.057793, -0.082772, 0.064802, -0.035618, 0.061211, -0.028652, -0.072012, -0.051580, 0.057651, -0.031090, 0.035351, 0.063136, -0.041345, -0.013055, 0.089243, 0.077261, 0.029166, -0.023990, -0.060359, -0.084211, -0.002053, -0.090384, 0.082906, -0.057779, 0.065213, -0.075028, -0.081565, -0.035537, -0.048292, -0.009624, -0.068577, 0.019983, -0.063981, -0.024433, -0.000697, 0.030828, -0.007078, -0.067979, -0.035502, 0.025143, 0.062901, -0.078026, 0.021307, -0.047690, 0.090734, -0.013122, -0.000282, -0.059246, -0.085909, -0.037313, -0.065328, -0.050091, 0.036367, -0.024692, 0.024278, -0.088539, 0.087812, -0.056674, 0.050015, 0.029367, 0.087555, 0.035106, -0.081936, 0.090144, 0.049926, 0.036881, 0.004777, 0.041950, 0.069619, 0.091701, 0.035226, -0.005434, -0.041385, 0.062220, 0.044994, -0.089875, -0.026277, 0.075898, -0.066452, -0.091727, -0.023729, 0.092219, 0.089265, -0.066126, 0.030647, -0.007460, -0.031439, -0.029499, -0.056640, -0.034081, -0.041323, 0.088714, 0.086924, -0.051770, 0.032505, 0.009409, 0.004590, 0.006556, -0.047726, 0.017207, -0.014631, -0.006863, -0.076594, 0.071115, 0.025201, -0.054610, 0.001568, 0.082795, 0.004490, -0.083980, 0.060225, -0.059124, 0.028133, 0.064087, -0.019976, 0.082497, -0.052157, 0.070581, -0.080109, -0.012297, -0.048348, -0.015296, -0.032882, 0.027198, 0.029127, -0.056286, 0.033715, -0.016446, 0.073757, -0.031764, 0.061538, 0.089856, 0.001019, 0.058829, -0.044050, -0.074140, -0.055623, 0.020475, 0.009262, 0.008262, -0.047463, 0.013426, 0.018182, 0.071635, -0.014260, -0.003235, -0.044214, 0.011638, -0.056901, 0.014378, 0.036867, 0.087278, -0.067772, 0.023417, -0.001538, 0.042737, -0.088200, 0.016370, -0.054160, 0.042498, 0.060920, 0.034391, 0.018975, -0.057774, 0.033651, 0.019932, -0.065101, -0.076790, 0.092562, -0.088832, 0.024235, -0.012020, -0.041029, -0.023152, 0.045082, -0.068250, 0.060271, 0.031856, -0.076766, 0.086852, 0.076021, -0.002362, 0.005614, 0.047082, 0.022924, -0.015620, 0.040926, 0.017184, 0.081606, 0.008543, -0.044920, 0.036956, 0.065687, 0.032533, -0.035348, 0.088880, -0.050782, 0.014759, -0.086852, 0.092040, 0.043979, -0.020929, -0.072626, -0.026263, 0.020497, 0.066536, -0.058552, 0.053878, 0.085697, -0.076859, 0.081666, 0.014285, 0.077229, 0.041065, -0.009341, 0.042964, 0.092341, -0.004154, 0.061899, 0.054600, -0.085783, 0.021858, 0.060966, -0.029253, -0.026843, 0.067167, -0.062630, -0.081815, -0.042595, 0.001560, 0.003659, 0.038959, -0.069749, -0.065606, -0.041113, -0.023124, 0.054960, -0.024834, 0.065561, 0.061062, -0.092700, 0.042527, -0.044680, 0.019508, 0.036965, -0.043526, -0.021980, -0.059663, 0.025621, 0.004508, 0.026202, -0.011558, -0.070447, 0.078982, -0.027440, 0.003148, 0.091608, 0.030590, -0.013777, 0.056178, -0.015808, -0.035417, -0.076249, 0.076603, -0.089955, -0.021415, -0.080578, 0.008352, 0.045336, 0.076881, 0.013336, -0.053012, 0.046236, 0.038359, -0.080220, -0.060616, -0.064525, -0.084293, -0.000985, 0.068880, -0.088486, -0.017531, 0.052740, -0.059022, -0.062056, -0.010997, 0.003777, 0.044271, -0.016440, 0.000737, 0.004311, -0.046056, -0.017053, 0.064909, 0.024639, 0.027591, -0.009724, 0.037914, 0.085125, -0.025661, 0.032890, 0.033400, -0.084471, 0.066691, -0.015427, 0.050011, 0.044553, -0.033069, 0.019583, -0.082640, -0.055151, 0.010124, -0.050849, 0.080126, -0.087407, -0.060158, -0.083586, 0.009955, 0.054877, -0.006205, -0.014631, 0.042553, 0.007721, -0.006185, -0.020257, -0.092118, -0.008915, -0.050817, -0.006519, -0.027258, -0.041860, 0.037362, -0.063909, -0.011140, 0.053663, 0.068806, -0.000958, 0.033537, 0.034087, -0.083257, -0.092676, 0.030614, -0.027391, -0.030340, 0.075314, -0.088034, 0.055826, -0.022491, 0.069367, -0.063237, -0.006742, 0.061818, -0.068983, 0.002330, 0.024380, -0.059530, -0.019017, 0.047638, 0.071129, 0.082378, 0.021778, 0.020706, 0.006832, 0.034915, 0.043354, -0.004108, 0.056650, -0.021885, -0.039650, 0.028128, 0.055092, 0.049902, -0.083872, 0.011697, 0.043741, 0.001083, -0.030189, 0.007298, 0.024688, 0.008273, -0.005137, 0.058677, -0.055394, 0.068053, -0.057171, 0.014274, -0.017597, 0.070127, 0.072082, 0.072223, -0.004670, 0.073384, -0.031653, -0.060687, -0.087108, 0.066416, 0.083360, 0.031380, 0.066233, 0.070146, -0.018846, 0.054927, -0.073578, -0.011818, 0.091628, 0.011871, 0.076139, 0.018090, 0.081922, 0.013355, -0.028759, 0.067568, 0.045849, 0.042007, 0.054803, 0.058154, 0.037460, 0.061537, 0.056231, -0.060492, -0.091655, 0.015800, -0.077001, -0.086536, 0.084247, 0.083497, -0.041597, -0.078749, 0.079091, -0.056156, 0.019116, 0.071833, -0.005902, -0.059316, -0.076224, -0.062819, -0.063123, -0.086369, -0.049002, 0.056420, -0.015430, 0.015939, -0.050322, -0.027789, 0.008492, -0.081813, 0.058633, 0.021450, -0.075369, -0.086128, 0.012579, -0.060133, -0.086647, -0.085750, 0.013923, -0.066510, 0.029311, -0.025827, 0.045714, -0.084906, 0.011232, -0.075089, -0.038557, 0.037575, 0.035027, 0.002762, 0.072241, 0.078695, -0.083003, 0.002282, -0.035351, 0.081207, -0.053065, 0.016267, 0.072271, -0.088262, 0.045989, 0.034230, -0.026050, -0.030397, 0.089064, 0.014050, -0.019250, -0.001463, -0.002562, 0.082308, 0.006051, 0.019821, -0.029549, -0.084011, -0.074591, -0.040581, 0.079373, -0.046735, 0.022706, 0.011059, 0.015048, 0.003293, 0.009620, 0.015392, 0.056801, -0.007083, 0.010239, 0.051867, -0.034685, -0.049628, -0.083185, -0.063817, 0.010352, 0.015647, -0.052040, 0.077412, 0.070720, 0.067592, -0.011397, 0.049049, -0.069481, -0.049088, 0.058837, 0.038524, -0.007837, -0.011115, 0.069467, 0.045438, -0.008027, -0.023326, -0.061759, 0.021314, -0.090942, 0.012815, 0.022226, -0.011744, -0.060992, -0.024292, -0.010678, 0.030445, 0.086265, 0.040910, 0.049448, 0.066925, -0.000765, 0.000348, -0.018573, 0.080797, -0.083405, 0.053238, -0.031719, 0.050294, -0.087188, 0.083374, -0.054731, -0.064528, -0.027824, -0.004555, 0.044182, 0.012037, 0.086186, -0.027331, 0.043496, 0.034931, -0.049945, 0.018443, 0.059477, -0.049422, -0.042318, -0.089196, 0.056604, 0.009914, 0.019098, -0.051347, -0.084815, -0.003238, 0.029392, -0.008170, 0.009290, -0.062844, 0.068154, -0.023996, -0.032307, 0.092469, 0.069844, 0.015052, -0.068914, 0.027841, 0.047955, -0.072580, -0.068928, -0.088980, -0.060151, -0.067131, -0.010718, 0.007793, 0.073244, -0.046362, 0.031794, -0.077461, -0.034272, 0.008054, -0.026740, 0.005897, -0.005140, 0.082714, 0.039435, -0.040566, -0.047142, -0.000310, 0.010879, 0.033126, -0.054753, 0.077748, -0.074792, 0.021871, 0.085431, -0.000223, -0.083140, -0.063762, -0.078896, 0.011722, -0.065215, -0.018972, 0.092602, -0.060945, -0.046684, 0.075051, 0.043818, -0.000343, -0.041143, -0.030966, 0.070734, -0.002936, 0.076480, -0.022763, -0.042955, 0.015007, -0.085618, 0.086981, -0.021172, -0.035235, 0.026400, -0.057756, -0.030895, 0.029857, 0.006448, 0.050143, -0.089050, -0.020823, -0.044139, 0.090093, 0.049514, 0.067464, 0.086509, -0.012008, 0.068760, 0.071440, -0.079479, -0.036767, 0.092130, -0.003920, 0.013346, -0.064771, -0.011852, -0.056684, -0.068220, 0.052010, -0.005667, 0.059669, 0.054296, 0.000346, 0.049561, 0.033879, -0.040337, -0.078402, -0.028158, -0.060915, -0.066951, 0.025730, -0.022620, 0.011612, 0.041090, -0.056099, 0.001154, -0.057176, 0.088347, -0.028343, 0.065773, 0.026943, -0.078182, 0.015253, -0.027012, 0.002305, -0.052177, 0.072547, -0.088367, 0.015920, 0.067997, -0.076561, -0.035757, 0.034521, -0.061174, -0.090529, 0.025915, 0.058445, 0.058863, -0.050534, -0.046603, -0.014802, 0.054894, -0.013819, 0.070194, 0.061161, -0.073279, -0.025734, 0.011480, -0.016382, -0.035319, 0.053114, -0.058344, 0.035212, -0.021626, -0.055341, 0.062038, -0.005191, 0.047153, 0.030993, -0.059771, 0.072020, 0.038458, 0.010019, 0.007424, 0.014107, 0.078151, -0.053802, -0.050351, -0.044016, 0.086880, -0.071462, 0.090515, 0.044728, -0.063241, 0.055737, -0.044654, 0.003193, 0.052060, 0.010643, -0.023071, -0.062982, 0.012622, -0.020183, 0.000984, 0.068499, 0.046259, 0.069297, -0.066619, -0.018426, -0.063381, 0.086189, -0.075611, 0.059513, 0.033887, -0.026398, 0.017220, 0.037237, -0.009610, -0.037602, 0.027326, -0.086804, -0.055608, -0.009347, -0.034494, -0.010584, 0.060649, -0.027046, 0.057420, 0.029135, 0.019291, -0.026554, -0.049979, 0.068915, -0.078729, 0.019720, 0.001695, -0.005168, 0.084184, 0.016849, -0.007327, 0.004715, -0.057169, 0.025632, 0.035440, 0.056731, -0.036631, -0.010692, 0.000405, -0.017770, -0.001847, -0.021766, 0.036971, -0.054843, 0.051263, 0.038018, -0.066609, -0.076737, -0.042828, -0.042846, 0.036424, -0.047261, 0.051327, 0.081663, 0.060254, 0.012221, 0.030999, 0.028235, 0.039243, -0.015801, -0.068070, 0.040727, -0.034591, 0.048557, -0.051590, -0.004112, 0.051621, -0.047629, -0.036157, -0.038367, 0.086433, -0.090448, -0.072663, 0.064148, 0.009066, -0.062823, -0.016722, -0.026980, 0.024522, -0.010778, 0.022089, -0.074319, 0.055131, -0.025899, -0.023745, 0.004330, -0.019204, 0.014368, 0.012581, 0.091009, -0.090668, 0.089597, -0.074522, 0.054173, 0.051119, 0.002613, -0.042988, 0.020789, -0.040167, 0.052179, -0.084101, -0.011706, 0.080964, -0.012789, -0.011279, 0.006288, -0.056259, 0.070696, -0.029295, -0.018022, 0.063252, -0.029448, 0.056130, -0.017939, 0.019357, 0.060628, 0.054609, -0.025198, 0.000880, -0.027994, -0.081365, 0.047393, -0.048344, 0.054528, 0.044190, 0.057455, -0.027547, -0.026034, -0.087681, 0.057027, -0.088808, -0.027321, -0.067063, -0.021245, -0.054644, 0.088782, 0.068694, 0.033519, 0.005188, 0.048081, 0.081832, -0.089217, -0.023347, -0.024454, -0.010790, -0.059672, 0.005273, 0.055139, -0.016804, 0.057984, 0.066700, 0.074724, -0.070959, 0.003821, -0.020510, 0.057805, -0.072925, 0.042507, 0.091982, -0.067017, -0.063201, -0.038051, 0.090253, -0.029936, -0.079760, 0.052147, -0.085500, 0.013463, 0.064194, -0.056545, -0.085740, 0.070375, -0.020910, 0.090324, 0.056144, -0.006127, -0.052603, 0.002717, 0.005715, -0.012523, -0.006859, -0.088073, 0.059370, 0.045994, -0.052616, 0.024259, 0.033050, 0.053363, 0.025462, 0.081224, -0.043258, 0.075459, 0.033321, -0.075154, 0.092524, -0.086914, 0.027769, 0.078057, -0.083106, 0.002087, -0.078558, -0.052738, -0.071799, 0.070238, -0.071777, 0.002399, 0.028589, 0.070655, -0.031705, -0.042554, -0.034173, 0.054046, 0.041689, 0.052549, -0.092503, -0.003862, 0.009374, -0.047840, 0.088118, -0.024869, -0.072699, -0.067797, -0.054619, -0.044097, 0.042390, 0.061497, 0.023360, 0.051054, -0.068909, 0.070811, -0.078934, -0.002111, 0.023298, 0.008446, 0.054091, -0.053581, -0.036967, 0.070553, -0.084674, 0.079711, -0.013619, -0.074802, -0.005266, 0.059966, -0.032334, 0.019211, 0.079785, 0.026213, -0.091937, 0.047371, -0.011931, 0.024989, 0.070143, 0.054815, 